encog,BasicNetwork,java,3.4.0,1,1575115497403
[BASIC]
[BASIC:PARAMS]
[BASIC:NETWORK]
beginTraining=0
connectionLimit=0
contextTargetOffset=0,0,0,0,0
contextTargetSize=0,0,0,0,0
endTraining=4
hasContext=f
inputCount=240
layerCounts=2,51,51,51,241
layerFeedCounts=2,50,50,50,240
layerContextCount=0,0,0,0,0
layerIndex=0,2,53,104,155
output=0.0144671454,-0.1916209124,0.6070014259,0.4352350809,-0.9825450844,-0.4953265015,0.9369810137,0.9999788269,0.3076457592,-0.9987262451,0.9156845643,0.9751914335,0.9926828647,-0.9998241068,0.9999937023,-0.9949575445,-0.9999866841,-0.8668327409,0.9579025076,0.8901502061,0.9991805108,0.9808182735,0.8213411784,0.9999977329,0.2195054162,-0.9984093109,-0.9544394652,0.2429946364,-0.8699960135,-0.121401695,-0.9867307495,-0.8846618926,0.5872895726,0.990950709,0.9999913915,0.9999973816,0.9999954788,-0.8295399265,0.9999992968,-0.9967174758,-0.8650049918,-0.9606075576,0.5162495569,0.9739948828,0.9274279813,0.9999994381,0.9895459526,0.9999884852,0.9960461169,-0.8470581409,-0.999998025,0.9997835245,1,0.2091463963,0.9945023903,-0.9386691755,-0.9999998129,-0.198075999,0.9999129658,0.9948111017,0.999999756,-0.6085372496,0.9550436992,-0.4299691693,0.9995289206,0.9936104441,-0.9892481714,-0.9991902654,0.743003055,-0.9966603734,0.4757113556,-0.552551266,0.2505409429,-0.0435848581,0.9999999964,0.9999986941,-0.8315208428,-0.9999748412,-0.1727193981,-0.5743350203,-0.9999972608,-0.9999974944,-0.9998913484,-0.9073356429,-0.9564187397,-0.9999999994,-0.6929826329,0.7845919417,0.9979014716,0.9101406044,0.0582728561,-0.5321647494,-0.9609848235,-0.9981729508,-0.9422366111,0.9573081951,0.999436268,0.9999836297,-0.2929416259,-0.9953678756,-0.9996566228,-0.9756467143,-0.9996680935,1,-0.1075254704,0.9999347953,0.9999999999,-0.9999999819,-0.9999939535,-0.9999998412,0.999999624,0.9997802383,0.191088877,0.9999999993,-0.9995104792,-0.0496348285,-0.9999991448,-0.9140222655,0.204153401,-0.8462776983,-0.9999998859,-0.4271761066,0.992703841,-0.9772913322,-0.999472746,1,-0.9999566649,-0.9998639838,-0.9993226306,0.412380763,0.6163369398,0.9981855903,-0.9178122858,1,-1,0.9999998292,-0.9986455004,-0.6615742181,-0.9944065361,-0.9803943064,-0.4105262609,-0.9982223692,0.9999993594,0.9999999777,0.9695062024,0.9994462701,-0.9997370189,-0.9999999705,-0.9999999597,-0.9994215284,0.9886317912,-1,0.8886448973,0.9999863063,1,0.9,0.9,0.9,0.9,0.9,0.9,0.9,0.9,0.9,0.9,0.9,0.9,0.9,0.9,0.9,0.9,0.9,0.9,0.9,0.9,0.9,0.9,0.9,0.9,0.9,0.9,0.9,0.9,0.9,0.9,0.9,0.9,0.9,0.9,0.9,0.9,0.9,0.9,0.9,0.9,0.9,0.9,0.9,0.9,0.9,0.9,0.9,0.9,0.9,0.9,0.9,0.9,0.9,0.9,0.9,0.9,0.9,0.9,0.9,0.9,0.9,0.9,0.9,0.9,0.9,0.9,0.9,0.9,0.9,0.9,0.9,0.9,0.9,0.9,0.9,0.9,0.9,0.9,0.9,0.9,0.9,0.9,0.9,0.9,0.9,0.9,0.9,0.9,0.9,0.9,0.9,0.9,0.9,0.9,0.9,0.9,0.9,0.9,0.9,0.9,0.9,0.9,0.9,0.9,0.9,0.9,0.9,0.9,0.9,0.9,0.9,0.9,0.9,0.9,0.9,0.9,0.9,0.9,0.9,0.9,0.9,0.9,0.9,0.9,0.9,0.9,0.9,0.9,0.9,0.9,0.9,0.9,0.9,0.9,0.9,0.9,0.9,0.9,0.9,0.9,0.9,0.9,0.9,0.9,0.9,0.9,0.9,0.9,0.9,0.9,0.9,0.9,0.9,0.9,0.9,0.9,0.9,0.9,0.9,0.9,0.9,0.9,0.9,0.9,0.9,0.9,0.9,0.9,0.9,0.9,0.9,0.9,0.9,0.9,0.9,0.9,0.9,0.9,0.9,0.9,0.9,0.9,0.9,0.9,0.9,0.9,0.9,0.9,0.9,0.9,0.9,0.9,0.9,0.9,0.9,0.9,0.9,0.9,0.9,0.9,0.9,0.9,0.9,0.9,0.9,0.6428571429,0.9,0.9,0.9,0.9,0.9,0.9,0.9,0.9,0.9,0.9,0.6428571429,0.6428571429,0.9,0.9,0.9,0.9,0.9,0.9,0.9,0.9,0.9,0.9,0.9,0.6428571429,0.9,0.9,0.9,0.9,0.9,0.9,0.9,0.9,0.9,0.9,1
outputCount=2
weightIndex=0,102,2652,5202,17252
weights=##0
##double#17252
   -0.2342530051,0.4047684253,0.2783862164,-0.4619790614,0.7415039681,-0.2943726177,0.9146733022,0.0176759562,0.9460313722,-0.8477969707,-0.1630728064,0.300270013,0.3580699789,-0.9357800083,-0.8517302036,0.5302785437,-0.5597685116,0.2173609617,0.747820417,-0.9803892624,-0.4434894272,-0.2695775385,0.2042989023,-0.8436647654,0.109253751,0.0937844659,0.8881016352,0.6137722568,-0.5097306866,0.5989627167,0.1501027631,-0.0602694496,0.0238382567,-0.796665889,0.9409127265,-0.8616613428,0.4806581034,0.4607414042,0.8830315939,0.5673909008,-0.4574891592,-0.7891489201,-0.9983079013,0.457229903,-0.578236107,0.9224720329,-0.2633856411,-0.7188913974,-0.2295215269,-0.2789164141,0.5638088214,0.1853124153,-0.1935166781,0.4524210959,-0.8055750844,-0.6836205643,0.9299364728,-0.6972046646,-0.2868390264,-0.4878260733,-0.7987956452,-0.9503024111,0.1975091311,0.0863383518,0.0866426107,0.3838822153,0.4899009505,-0.5338562663,0.7150637601,0.0753797409,-0.9082226701,0.7306710983,-0.6191462109,0.105877748,0.5379083471,-0.9250559666,-0.3340634451,-0.5198766966,-0.7443918506,0.9068247774,-0.1495911381,-0.5711425094,0.7778061892,0.7360502426,0.6871764844,-0.4496747003,-0.5141456743,0.7746749208,0.9464010416,0.9084888868,0.4828892936,0.8933839981,-0.1479576655,0.2869824646,0.5965763704,-0.3456446604,0.0148391895,-0.2660218398,-0.5508535963,-0.4519405465,0.9211264988,0.4338070858,0.0923011998,0.7152521115,0.4577030109,0.8753095089,-0.1482801022,0.3265222626,0.2879893768,-0.3818881709,0.4817919856,-0.4270164874,0.8090505942,0.3520844742,-0.2260876826,0.1327640398,-0.974276279,0.9582671596,-0.4162362132,0.4756337576,-0.1672718921,-0.5151795966,-0.8699000826,0.1402827055,-0.5683648797,-0.9042768313,-0.2324724143,-0.6034640284,0.6878792966,0.0190389466,-0.5551647844,0.1519697289,0.240948409,-0.2775901483,0.7833088002,0.7101496218,0.8491527764,0.3443981949,-0.6242218459,0.0860311347,0.9124458025,0.5481265742,-0.9108696036,0.3718848443,-0.2322938277,-0.6004659684,0.8069887195,-0.7715447674,0.1317746521,0.637288739,-0.6037263249,-0.5150756102,-0.217469036,-0.5393163721,-0.2147829023,0.738500918,-0.7904199319,0.2721367412,0.880156329,-0.1673631545,0.4921246362,0.1015648569,0.4367775764,-0.3310952177,0.5771879267,0.6336675154,-0.6780810846,0.9693827075,-0.9399531045,-0.4550723468,0.391307354,0.6627706378,-0.7782454521,0.5004762705,0.2908368761,0.8262139934,0.0347972048,0.043287458,-0.4092729042,-0.3722210033,-0.8854015278,-0.3869736,0.3481043855,0.7895589973,0.639220928,0.6746382031,-0.1902020644,-0.1377349812,-0.6752881106,-0.6709269305,0.8270799614,0.5356544192,-0.3931571894,-0.5259317352,0.1534080904,-0.3840098583,0.9508229217,-0.6664566362,0.549730944,-0.1655576535,-0.1737845126,-0.2137283849,0.0526700358,-0.9824033833,0.8943213213,0.6287495026,-0.0949467012,0.289711202,0.3495157917,0.6721913544,0.173816362,0.0096164039,0.105251374,0.0615870001,0.0280826374,0.6155103994,-0.1522617071,0.3608749341,0.7427339705,0.9336950782,-0.6839389568,-0.5655960465,0.578963743,0.6095039422,0.2583243085,-0.3852698719,-0.8311082544,-0.323800425,-0.5747394753,-0.8714245407,0.5032096379,-0.6912518565,-0.4330036949,0.4065018774,0.021574867,-0.0139525085,0.7595982599,0.0757515709,-0.9123104421,0.5955683996,-0.8853018406,0.5572283549,0.1051770386,-0.2608236429,0.1219138236,0.5512326462,-0.892365546,-0.8610694024,-0.5889167574,-0.5956412959,0.6129195469,-0.5943159192,0.9125550738,-0.6937528847,0.2558291092,-0.7954286973,0.394520994,0.0318681664,0.3753327713,-0.958382721,0.2967422298,0.3727144896,-0.0419500018,0.9896693104,-0.9995539009,-0.0313472724,0.4667725238,-0.9447503174,-0.1637433524,0.1437751533,0.7985119298,0.1900939651,-0.2531691311,-0.6786436972,0.1937764523,-0.0838580506,-0.5587998549,0.7162286844,-0.8523183159,0.8306699262,-0.6663899772,0.6200556655,-0.5985158642,0.5813646304,0.0541372634,-0.4543074104,-0.6946830742,-0.2000737991,-0.2549067919,-0.3749089896,0.4709260526,-0.1269611721,-0.0136588218,0.7663965204,0.367524333,-0.651461515,-0.848092347,-0.1586371025,-0.8236476572,0.7533403049,0.5525786155,0.3819452114,0.1583716032,0.2922536027,0.5898168234,-0.0543530041,0.4997581634,0.4997182751,0.1414467555,-0.3240268012,-0.4350426773,0.89371154,0.9924877787,-0.7638069447,0.217822125,0.7792837176,-0.9447785652,0.501177877,-0.277886436,0.9090728352,-0.8015247086,-0.687690541,0.4153626992,-0.7454624511,-0.6350942337,-0.2420784421,-0.9731845206,-0.7388592371,-0.2785449584,-0.0633798831,-0.5288521301,-0.0827258101,-0.590195914,-0.5613544528,0.307805725,-0.1001490165,-0.6084197953,-0.0436681844,0.5282469387,0.3007613072,-0.3710130068,-0.1385221748,-0.8512947475,-0.5211512514,0.9211946494,-0.1190551156,0.2531369508,-0.821725895,0.2614939585,0.8438623255,-0.1430813497,0.7283396431,-0.8883005187,0.2398041191,0.6694473104,-0.7231341558,-0.9718073738,-0.1333262559,0.8161683573,0.258678773,-0.5943534318,-0.9259148677,0.8311842266,-0.1953275289,-0.3468912713,-0.1445898944,0.9328671951,0.8974700405,0.1270083911,0.2141257889,-0.0293829552,0.3605932743,-0.0387038825,-0.9747244116,0.6959808404,-0.0575033041,0.0703915849,0.6206282439,0.9899727033,-0.3985489332,0.5783673437,-0.6490674103,-0.6187430751,0.7978080574,0.9300920843,-0.9417495245,-0.3171348144,-0.7455704129,0.3573349808,-0.8822798798,0.332573193,0.8353643228,0.2016399449,0.1915266687,0.5477732808,0.9269408965,0.1186503611,0.3593046083,0.0177288099,0.0119157306,-0.4152625023,-0.8391750466,0.2286832814,-0.9004194968,-0.7260984553,-0.6028922562,0.2945582404,-0.1881378202,0.4523953466,-0.8394599494,0.7916544796,-0.9175639177,0.6217640922,0.2505826249,-0.0140588533,0.710340082,-0.4009922774,-0.8238620751,0.9809740604,0.8439872127,0.8577458236,0.4428538234,0.267165296,0.5666466559,-0.9883185093,0.1530549464,-0.6619693846,0.2809858164,0.6868477937,0.0701096644,-0.6792973011,-0.8669208366,0.36762132,0.2512674275,-0.5733212617,-0.4953738082,0.1033341084,0.4234641636,0.9804034861,0.3592820974,0.3470378775,-0.0568442393,-0.2196851535,-0.1885979801,0.9117410915,0.758089765,-0.929090977,0.2023401033,0.7930983482,-0.4189704182,0.2019785685,-0.7243012603,-0.020475032,-0.404164953,-0.048368958,-0.7705088474,-0.0232212317,0.2656638798,-0.8684711343,-0.9438474497,0.089244779,0.4312590389,-0.7513545706,0.0514709476,-0.5946389296,0.4236928961,0.9548042458,-0.3714006881,-0.7775879633,-0.6010126702,-0.6954555392,0.8998225745,0.575037948,0.6532549777,-0.7112757003,-0.7236772556,0.8310553946,-0.1189717467,-0.7262653583,-0.3796686849,0.0940617124,0.2226750603,-0.1640093944,0.2071922498,-0.2919882441,0.0377732885,-0.5676621054,0.0724921192,0.7324387518,0.8690467558,0.729592116,0.0193763607,0.0235427059,0.6189903386,-0.1468936325,-0.493589789,-0.199172012,0.0978232798,-0.4273996618,-0.6924729015,0.9508625991,0.4370987576,-0.8483249071,-0.188611099,0.1603605616,0.7450735046,0.7885440685,0.5610834313,0.643104584,0.9413931224,-0.0294909367,0.5259196373,0.296931351,-0.9817376942,-0.546405063,-0.432750371,0.8786315122,0.802699183,-0.5715013262,-0.9424195792,0.3309839715,-0.8998680936,-0.9041886138,0.5023428968,-0.3261504227,-0.8401133567,0.0960807115,0.7189364729,-0.9472887396,-0.5669346317,-0.7569767397,-0.0848768629,0.1684228303,-0.4424134617,-0.6709678217,0.4801431745,-0.550529555,0.3956727439,0.6671289718,0.2786759992,0.3156966952,-0.7070374168,-0.7880335274,-0.3984742438,0.001263086,-0.3462769824,0.1416638637,-0.0961918742,0.9161862795,0.2376267769,0.2224538644,-0.3742207834,-0.4994052255,0.7419830458,-0.1671453863,0.6857950121,-0.6094669548,-0.1848691306,0.6402056826,-0.7611915606,0.1317863004,0.1399496849,0.2880071787,-0.7760322402,-0.0211144928,0.4219993959,0.6099490552,0.0237569947,0.1205159446,-0.0550858995,-0.3814073414,-0.1251127669,0.4993816363,0.2748093309,0.063227155,-0.6288319885,0.1336441911,-0.965731479,-0.0905758934,-0.9693781734,-0.6238243497,0.2370576326,0.4145560141,0.1282721507,0.981001125,0.2800106055,-0.3630438247,0.9955240247,0.0083682079,0.7544361475,0.3027023087,-0.6265065808,-0.4986913849,-0.7850732603,0.3345541832,-0.0942057726,-0.6441048086,-0.6986768738,-0.8808787194,0.4503709822,-0.7523506,-0.6960961739,0.6465624704,0.0538916557,-0.0339508423,-0.0853436468,-0.0742427333,0.8821054719,-0.3130098471,-0.5490943922,0.9173254954,0.3602532518,-0.3145029552,0.2355575606,-0.5434009216,-0.1881818148,-0.3045225702,0.6383587309,-0.3228692943,0.873603052,0.9806005302,-0.3700755152,0.9805750918,-0.2778769178,-0.5251830465,0.9166643646,-0.6257663856,0.4873365731,0.7111343346,0.9887699349,0.4216752344,-0.9396606546,0.0535900128,-0.9396063123,-0.3281284699,0.2249869562,0.8009385378,-0.708224087,-0.9477081234,-0.3168771301,-0.1694189544,0.0317551073,0.8502220563,-0.0401398263,-0.5966890529,0.9971593622,-0.3799328162,0.8205779317,0.0165841382,0.8515507349,0.8470941618,-0.6008125466,-0.8120732407,-0.6761301262,0.2924210071,-0.2999591506,0.5619870581,0.5394344743,-0.3971524544,-0.9644277907,-0.7076831889,-0.0288411765,0.825123674,-0.9434704839,-0.4717975496,-0.6496210679,-0.5155050665,-0.0048662781,-0.7204159549,-0.9574672122,-0.8164197277,0.0930081247,0.9311614681,0.2713409965,-0.9063195686,0.9516066726,0.1901610601,-0.9234684506,-0.753479044,0.3198540501,-0.1864293029,-0.6202456421,0.1851797003,-0.6659638291,-0.1739975371,-0.6377738852,-0.8577328518,0.4020882843,-0.4730457165,-0.7078663211,0.5342938661,0.0035874185,0.6439543817,0.4336626875,0.2103264997,0.63374979,-0.2170328544,-0.8531391203,-0.6123054083,-0.8878736561,0.5977098359,-0.334492874,-0.8920390961,-0.4745153193,0.4910939492,-0.1255128765,0.8576464467,-0.6499750133,-0.4349269179,0.9208006005,0.238402546,0.0200735457,0.0073517063,0.6660469218,0.901575595,0.8901040274,-0.6455431931,0.9578705849,-0.6422212362,0.6514379371,-0.0174925905,-0.8893269947,0.7138614139,-0.2552712409,-0.2007282451,-0.4054452783,0.6412929096,-0.003721024,0.957846604,-0.7165422938,-0.2352513361,-0.5300027305,-0.5030673545,-0.6099595092,-0.1762214381,0.5967110229,0.6435731782,-0.9245869436,0.6370308417,-0.4330352294,-0.1288543501,-0.2624490778,-0.4165740868,-0.175987475,0.7097751965,0.1749284761,-0.9001934838,0.1374638618,0.5090176593,0.5758492394,0.2373943428,0.4150708031,-0.7572640783,-0.7028836365,-0.4676452305,-0.1377297566,0.7598022919,0.6811731545,0.597971417,-0.1644363806,0.4070224555,-0.7762852394,0.9017365189,-0.6941577001,-0.026993723,-0.773405038,0.3500171385,0.550339285,0.0968815273,0.4498484296,-0.6640285613,-0.5798810946,-0.0381448845,-0.8050609207,-0.84527127,-0.7037133797,-0.9551391911,0.5082538505,-0.6614377554,0.3522207105,0.3327674215,-0.3047875425,0.8941033974,0.6140498722,0.2053760714,0.9411434433,0.8374735534,0.5157547267,-0.1245781482,-0.0108845585,0.2359472017,0.188973902,0.159688249,0.3330062598,0.2091672809,0.6700193552,-0.8241103035,0.7991870532,-0.0959001581,-0.3425911554,-0.4934873848,-0.1441411714,-0.3501471665,0.9917687331,0.6539178929,-0.6371520356,-0.5395529801,-0.6702674959,0.3358115256,0.2507767054,0.7134619754,-0.8965138171,0.307147384,0.8573550534,-0.0335253905,-0.3379872612,-0.1881592622,-0.8338761181,0.5708576934,-0.604342865,0.9555593358,-0.6421301781,0.9180340814,0.7592702011,0.0390717431,0.5850834668,-0.6932568733,-0.6020798204,0.6968762568,0.5570525906,0.6209371105,0.8249463388,-0.2825922776,-0.9619874674,-0.3416391728,-0.0563430747,0.1708624568,-0.1326634158,-0.8167101653,0.6777423003,0.7427732051,-0.1260625931,0.9623204982,0.97891515,0.1572359133,0.0417686758,0.6544964728,0.7469817647,-0.5104160838,0.425660731,-0.8611335812,-0.2539433802,-0.5238712423,0.1278619007,0.7184063702,-0.0011521352,-0.8285174553,0.6312539722,0.4284993846,-0.6423995499,0.7745598343,-0.3926893643,0.1313737456,-0.9797800912,0.778632861,0.7874594048,0.2879046567,-0.9377231667,-0.2087298329,0.2203900885,-0.730395095,-0.0854761773,-0.7169078245,-0.9162073885,0.4768113667,-0.6511973005,0.6705083046,-0.9454021588,-0.8674418033,-0.7270146751,-0.6746562249,0.3740860499,0.853279956,-0.3008032107,0.9518798051,-0.7634182707,-0.6872094757,0.6988557205,0.7003673667,-0.8998663871,-0.8732613741,-0.7756559897,-0.719309172,0.2816909284,0.2556757866,0.1739424211,-0.8973461435,0.8467708611,-0.5249981449,0.6508700116,-0.2035446669,0.1946779616,-0.4951580954,-0.618628843,-0.7429005682,0.9636124061,0.8732137528,-0.2652062185,0.8881825236,-0.7908578945,-0.7919448923,-0.914381693,-0.8067904409,-0.8072678294,0.2591787468,-0.5031922619,-0.5802005504,0.4680739415,0.0936328853,-0.4494284155,-0.8859697341,0.6236726896,-0.4822163248,0.0556444323,-0.4334823393,-0.0863199218,-0.2320730546,0.3568055591,-0.6110430067,0.9585207519,0.0658123363,0.746252159,0.8943086325,0.2987003511,-0.7886650554,-0.2230578044,0.6509872337,0.2771068276,-0.3639271017,0.7921541818,-0.2867677739,-0.3713144652,0.5951996369,-0.9954922564,-0.8879534979,-0.0035563314,-0.6933892942,-0.2095439791,-0.9176779695,0.5623362313,0.2176939153,-0.7068581953,0.2841162632,0.8796044625,-0.7010384211,0.7191772652,0.6979358409,0.9477094741,0.0494230588,0.222386862,0.1268668829,0.9368885913,-0.0589309319,0.4309304602,0.722995974,0.385548887,-0.7672056152,-0.3931618019,-0.5051275349,0.459772985,-0.7689645826,0.6524589422,0.2435006865,0.93541985,-0.0918207676,0.1714604383,-0.2282954182,0.2377950915,-0.8192944187,0.5727952633,0.6515549522,0.1088018081,0.3433754724,0.2768112297,-0.5146173534,-0.725029256,-0.667981746,-0.1988465294,0.0988284708,-0.8982552928,0.6078263601,-0.2115743564,-0.8331429681,-0.1814477236,-0.4352729786,-0.2808999308,-0.9363355844,-0.6152025878,0.4321701134,-0.5128608294,-0.7168486367,0.9401534551,-0.4711078764,0.1357377115,-0.2315052567,0.6995998798,0.0902133067,0.7932483891,-0.2883589369,0.9648255794,-0.700048446,-0.451523676,0.2323589591,-0.416934709,0.5242216766,-0.5009381943,0.1613056096,-0.9507189191,-0.5625511653,-0.1733283857,0.7614370114,-0.4481704874,0.5866415404,-0.8240491518,-0.6843140966,-0.3392174792,0.0503467836,-0.1180301553,0.602515639,-0.0072500388,0.2565233525,0.1849403361,-0.6589705386,0.7480734466,0.3317627575,0.8940936392,-0.8588618086,0.9956482768,0.8838241299,0.0050471447,0.6871677312,-0.6843826006,0.8338578509,-0.7440851178,-0.6843283864,0.0098595355,-0.0325782343,0.9049254673,0.034571551,0.5165270039,-0.6398408163,-0.3417385962,-0.0937419948,-0.16403841,0.9577831774,-0.1366037049,0.2330430717,-0.6657535842,-0.8442238541,0.5421179194,-0.759226681,-0.3437928987,0.6815134305,0.3580568882,-0.0641985814,0.6994029684,-0.522674683,-0.1969717519,-0.6935600461,-0.1394339498,-0.4684633606,-0.8509747675,0.4728546026,0.0401286021,-0.3560061222,-0.901233356,-0.8492054605,-0.1244336843,-0.0461239486,0.6794450785,0.0827226659,0.5215182052,0.4658843769,0.2029847154,-0.3384029066,-0.3377323968,0.724564554,-0.2938473724,0.047854009,0.6430866632,0.9914897073,-0.0629520763,-0.1968823776,-0.6539888883,0.5460482853,-0.1143223021,-0.3561223625,0.5414096084,-0.4980222596,-0.8662019329,0.8918647256,0.0317807492,0.1641929175,-0.6671220901,-0.0315305744,-0.1544141772,-0.6434966104,0.4429460727,-0.2927814996,0.098068413,-0.897999402,-0.0566344356,-0.9545243858,-0.2493317232,0.6545773583,-0.4651031001,0.3252113382,-0.7691186168,0.3419465406,0.0087293212,-0.3316548891,-0.5090043881,-0.2014926531,0.6447573006,-0.7709374255,0.3190183806,0.8193719649,-0.6423150519,-0.8840411283,-0.9418810658,-0.0881752957,-0.4393322279,0.8950560165,0.5297903902,-0.0137413227,0.4277319268,0.4554470551,0.6689900613,0.3417639926,0.9272483128,0.9637521202,-0.0960182753,-0.812522951,0.3640624457,-0.6925017974,-0.6319725947,0.8711017669,0.8057831987,0.6120370351,0.1125298236,-0.0801288563,-0.8264728773,-0.8622114544,0.7014127328,-0.8802822448,-0.1843447797,0.7609840169,0.7829354976,0.5796456631,0.5519781255,-0.1169939006,0.7489732561,-0.6622917178,-0.945098893,-0.9593378265,0.8374958745,0.0581808081,-0.4589586425,0.4941530443,0.5665283774,0.2336989139,-0.7368495342,0.6772075972,-0.1398995998,-0.4693265637,-0.5819031677,-0.742948185,-0.7293391526,-0.8583444754,-0.4813162754,-0.1210525131,-0.8641444566,0.1526804823,0.9281272447,-0.5080711317,0.9087131621,-0.8211089185,-0.7903607312,0.5225926875,-0.8312851433,-0.4452344134,-0.5257236556,-0.847925387,-0.7660165349,0.6243577199,0.5325861007,-0.4807289582,0.3482337849,0.2237411764,0.7784793616,-0.4785167879,0.9076466661,0.1123487947,-0.8956052289,-0.4008147142,-0.8681696532,0.9138118886,-0.4425013761,0.3650919429,0.4095075358,0.4625828249,-0.4150437725,-0.5478363566,-0.0242530698,-0.1266376284,0.9282703061,0.0147165197,-0.2126762143,0.673689544,0.1853337443,0.6766024444,-0.6300308247,-0.3939711717,0.4186769207,-0.7816762373,-0.6365666068,0.5245293408,-0.4749093035,0.5937945112,-0.9693925228,0.7969644481,0.2567323866,0.4377030844,0.41189447,0.7417322768,-0.3523706177,-0.8106611975,-0.0439098621,0.1571314635,0.6767764395,0.2160468503,0.7058240506,0.6883845049,-0.4887082346,0.5964285406,0.8716972301,0.0393520505,0.2800156416,-0.0265742716,0.2919745624,0.4920311558,-0.0332359279,-0.9007569615,-0.8842426874,-0.9482718283,0.5911020086,0.4126437253,0.2522971089,-0.5290074099,0.8581707651,0.5279344776,-0.7371669372,0.1985740413,0.9023726138,0.903568993,-0.4564068223,0.0756614518,-0.4812467626,-0.402787882,0.2683490444,-0.3818092862,-0.89121819,-0.888399149,0.6555524461,0.5191096542,0.4476995464,0.7385910181,0.2598359733,-0.6032449565,0.1395680074,-0.7695827231,-0.0684647797,-0.619689253,-0.6534766164,-0.3273472067,0.9668085919,0.3199165099,-0.1559351874,0.2134756326,-0.0458672334,0.4676275277,0.5548033442,0.6610128247,0.6548271006,0.89244116,0.5804024807,0.2933462707,0.3973541002,0.6199381817,0.3997690764,0.5551280026,0.6378670599,0.4778255264,0.8858806115,0.9257326646,-0.2595386045,-0.0075552741,-0.1907549873,-0.8970957852,0.0823293885,-0.8725761576,0.7570649917,-0.2575289608,0.7197576718,0.8906263176,0.0328915527,0.6559384473,0.498569686,-0.5286509581,0.269489169,0.7230923307,0.1173021534,-0.6024042996,0.5024768289,-0.2845935748,0.7718407143,0.8249554173,0.4775599113,0.4960842324,-0.6236988909,0.5644088903,-0.8324593584,-0.2779453941,-0.4327695535,-0.4669298271,0.9155587719,-0.231410745,0.1554866333,-0.2590599437,0.8816488639,-0.1650552454,-0.7293020791,-0.5886919319,-0.30618811,0.0856476832,-0.6232214112,0.8427448326,0.1914947788,0.8962682926,0.0457873758,0.9880199123,-0.6183836555,0.4543269311,0.4611589863,0.1221532687,-0.5480288041,-0.390541432,-0.3220266839,0.2023575491,-0.0093728489,-0.5704671935,-0.0481499498,-0.7039244682,0.0413467875,-0.2071754155,0.2083978638,0.3092585607,-0.3329522569,-0.8817490694,-0.0971635796,0.7300492389,-0.6501976758,-0.3888323565,0.6327446841,-0.1549589982,0.6075409356,0.463271295,0.161435888,-0.5894574968,0.6446207459,0.7891909911,-0.3349230528,-0.8896810103,-0.2847314583,0.2760884717,-0.3239625807,0.7501909226,0.6115984866,-0.5460562426,-0.6756594317,-0.4616294701,-0.5811288527,-0.643904964,-0.4006063917,0.8600757802,0.1718081665,-0.7079990995,-0.5873065764,-0.7711628746,-0.1503976195,-0.3916591929,-0.6318895859,0.0885657136,-0.4532718144,0.5288643379,-0.1046459794,0.3071230579,-0.4457753062,-0.9138621177,-0.1743800505,-0.0672229065,0.5820232347,0.9140921545,0.0626413407,0.0613275455,-0.4158198001,-0.237864974,-0.2039151238,-0.3950478406,-0.3767228587,-0.4142088227,-0.2994478071,0.6591662442,-0.7749348076,0.7661054802,-0.5181548094,0.9987728847,0.7213422023,-0.3200761887,-0.3390152243,0.3697160601,-0.7128889136,-0.9329872027,-0.3235206672,0.4422390058,0.9741490663,0.6242506533,-0.0998405848,0.8392324579,-0.9306754725,0.0525251572,0.7471520297,-0.5874991171,0.6574681424,-0.7687177417,-0.065258096,-0.2409192212,0.9751200844,-0.5215973809,0.09558808,0.6120923719,0.7328086529,0.9140236581,0.9082699494,-0.7701797463,0.2300078146,0.1532131707,0.7804595553,-0.7415977219,0.1765189511,-0.5479879553,-0.0203540379,0.6903013837,-0.0861830163,-0.4774688441,-0.4046535109,-0.7475803821,0.3116167602,0.983722173,-0.52661952,0.0555421091,0.0864979179,-0.9708427472,0.5318381222,-0.8574615321,-0.8403184293,0.7267163742,0.418290419,-0.8895746662,0.2888041858,0.487034385,-0.9049638697,-0.3154064279,0.5292608032,0.201246435,0.1144766068,-0.8832272284,-0.6316422923,-0.4446840788,-0.991564278,0.728168972,0.2503838867,-0.1916206061,0.8259440199,-0.4073750181,-0.5981675664,0.166082874,-0.4819157722,0.9883729378,0.3959581033,-0.6081007647,0.2983311334,0.1794815901,0.5188487219,0.8810746401,0.9687597302,-0.638838727,0.5471380682,-0.7152857327,0.8442439835,0.0212979532,0.791492051,-0.972236241,0.9676916066,-0.1608667351,-0.6599509601,-0.0157467448,0.2749639911,0.8422792283,-0.4172298438,-0.3386416899,-0.754877214,0.4071995933,0.5833763903,-0.8046608244,0.3039922411,0.6336883445,0.0138270203,0.7425707171,0.4404010067,0.9383324622,-0.2169848817,0.5289912326,0.2172436017,0.4101549393,0.6929821163,-0.6029297444,0.7206546906,0.7579288086,0.0517397224,-0.0751077455,-0.1054650484,0.5699189356,-0.4728950868,-0.8939517956,0.3316137277,-0.201560823,0.216233996,0.6569596428,-0.775688094,0.2879202612,-0.8706243153,-0.7280876445,0.0250693093,-0.1494624178,0.1181627303,-0.4231577033,0.4462456331,0.5043755285,0.6209304508,-0.0109646428,0.4059415113,0.136970451,-0.1229449273,0.5684668934,0.9019324625,-0.6759346255,0.9620458963,-0.1029576235,-0.8777035393,-0.152490363,0.566913165,-0.4946911616,-0.8889082936,-0.7277898571,0.8538141825,-0.5552487253,0.2253143935,0.8511743677,-0.690735909,0.1719603788,-0.7555946786,0.5208000999,0.3836375182,-0.7662073669,0.5812542259,-0.3175250306,0.1676059246,0.9788983368,0.2808563334,-0.674351085,0.3038083714,0.5103406586,-0.3807592798,0.8871912094,0.0033602203,-0.3574704766,-0.3883323771,-0.9166386233,0.4433879572,-0.9106083103,-0.1858863073,0.6243701061,0.8864694831,-0.3471701292,0.1488184607,0.247644623,-0.2911639784,-0.925145593,-0.0499021069,0.6737778374,-0.7475433475,-0.7432236885,-0.4536615118,-0.1466842408,0.8944261799,-0.9481128739,-0.2794808138,0.6861967913,-0.0063586672,0.6112267123,0.8370549681,0.4527912571,-0.3874687418,-0.5269415912,0.2051289808,-0.643388106,-0.1248584397,0.9854210187,0.9299770312,0.6540885161,0.8086041449,-0.7896747763,-0.5621678624,-0.9560429289,-0.7931852322,0.9351454137,0.623193657,-0.0404267095,0.2378127679,-0.8231967969,-0.5227900644,0.0895342364,0.7204125871,-0.4425096407,-0.8472253695,0.0507495708,-0.4677583495,-0.5087852609,0.3493728309,-0.8480307456,-0.4889284443,0.4785080295,-0.4441799686,-0.9131805338,-0.1748719179,0.8585455577,-0.4162426583,-0.1984135583,0.8144883431,-0.2120667907,-0.3457826933,0.8933281553,-0.8684188433,-0.9275271617,-0.2686371814,-0.1383822528,-0.8317788495,-0.1251078508,-0.75300606,0.038542863,0.4840229485,0.9842389446,-0.4302123309,0.7145763956,0.4876589834,0.4006803554,-0.42734114,0.5644429647,0.0244199687,-0.528417488,0.7715238385,-0.2989601904,0.5470009449,-0.8913719479,-0.8782746464,0.5742778841,-0.1915837493,-0.1726871466,0.1170556446,0.1432634819,-0.9039040033,0.5329762028,0.3709077712,-0.3621276709,0.5237801379,-0.5735260029,-0.1310345823,-0.6080963448,-0.4946776474,-0.1444179002,0.1171852046,0.8959839251,-0.1616451449,0.9875776019,-0.0087329606,0.2968807659,-0.6063524096,-0.3889648474,-0.8899600708,0.4298742204,-0.9314775838,0.8211371918,0.5419868384,0.6447396446,0.1025296315,-0.7062228827,0.9355408554,-0.7886692962,0.6391493458,0.5423978562,0.2041935171,-0.2321263651,0.3338970029,-0.2587930101,0.01135256,0.8537843294,-0.9393895957,-0.8083012452,-0.4748346269,0.4924207257,-0.393508894,0.0947518992,-0.6939682997,-0.9503127108,0.072967558,0.7694841598,0.3330005589,0.1787910496,0.0029081639,-0.2302491288,0.1782770803,0.3093984131,0.9847927358,-0.9949674107,-0.1141617203,-0.5828965712,-0.503773088,-0.4694879009,-0.9552230865,-0.8491422948,-0.0247563077,-0.472731843,-0.4424651358,-0.8737237137,0.278660427,-0.5010009464,-0.7963467207,-0.0301690433,-0.39497625,-0.4426694742,-0.7120806488,-0.8418601794,-0.619369146,0.428706851,-0.8596164715,0.994592351,0.1288013612,0.7481176158,0.8137785034,-0.7624223051,-0.2271570007,-0.9015409547,-0.2226890707,-0.7687676376,0.0412237393,0.868396605,-0.4603436272,-0.057693955,-0.4284081393,-0.0553427255,-0.2170180837,-0.0090557569,-0.981620488,-0.4551568232,-0.8653055875,0.1762103769,0.3229739046,-0.9736987866,0.0698092756,-0.107835457,0.8239463161,-0.0101709251,-0.6466406299,-0.479666641,-0.5217916802,-0.1919338805,0.1234487395,-0.2698255659,-0.3213924671,0.0673574648,-0.5204246464,0.0122400865,-0.2906848957,0.4328360086,-0.3306570933,-0.1192339564,0.6332592933,0.1048349665,0.6567480087,0.1265436163,0.5480129711,-0.4962171539,-0.4612619111,-0.5094994093,-0.134074279,0.4847839203,-0.924174094,-0.2373809806,-0.0391511497,-0.3573660429,-0.073071003,0.0309244473,-0.692027387,-0.3245728564,0.247565642,-0.9326837105,0.7071601936,-0.643752942,-0.9226686898,0.1996828807,-0.6378750177,-0.2423495631,-0.6618560591,-0.0305188779,0.7709235215,-0.4553409843,0.9113572785,-0.2261567003,-0.2326911895,0.1959710073,0.5128881762,-0.1540292689,0.8872934685,-0.2797130895,-0.106874456,0.5637630234,-0.5633600038,0.3528534935,-0.7263824311,0.4193387602,0.9859399953,-0.9893655616,0.2307543698,-0.3795662312,-0.4108786787,-0.6863794821,0.750460639,0.9373382523,0.5258382678,0.4704736106,-0.1482753241,0.5602793497,-0.1480710542,-0.7842701549,0.2716390485,-0.3407582652,0.8903817936,-0.441376865,0.9499978409,0.7084341154,-0.3981289852,-0.1378209851,0.2659072188,0.8015349869,0.8928687897,-0.8711548637,-0.9986249259,0.3945763255,0.7328855433,0.8525475987,-0.9059711927,0.8123400611,0.7179666983,-0.8835872587,0.6273053964,0.2612172715,-0.7188423222,0.341070449,0.2917408703,-0.0628441893,-0.008495647,-0.93318657,0.2110285532,0.1971150466,0.522301423,-0.04221028,-0.7485385775,-0.4284630873,0.26386307,0.1660632175,0.4982335199,-0.3815861318,0.0530704358,0.9995276313,0.3232565713,0.4914696216,-0.1336035443,-0.754770632,0.9170668952,0.683899858,0.2340917314,0.9975123014,0.2218354881,-0.6271923009,-0.7023488333,0.7515023323,0.9025657419,-0.995165554,-0.9984991192,0.9998144679,0.9502978013,0.2405834631,-0.9619325707,-0.2735643237,0.1451595741,-0.3161320624,-0.9441898902,0.7753307746,-0.44028943,0.610573989,0.1216895869,-0.9768125273,0.3507096727,0.472597007,0.1090459585,0.159154647,0.0162165282,0.7836021233,-0.8207214119,0.2680707141,-0.9060025566,0.2440977867,-0.1355972019,0.6678302105,-0.2088983931,-0.1917375761,0.5739170362,0.2505232505,0.5947077605,-0.884202667,0.2649144956,0.9076163333,0.788925827,-0.3305166019,0.983493481,-0.0551556352,0.7204765231,-0.1702711177,0.1866910013,0.6077950024,-0.9549798411,0.8328831326,-0.4851050322,0.820405013,-0.525937309,-0.1757364711,-0.9254631264,-0.5152669753,-0.7753756243,0.4589177739,-0.9528502273,-0.0638834285,0.4991955324,0.173082357,-0.1622797746,-0.6244186903,0.2749550735,-0.1209040322,0.3907635612,0.187875749,0.2085261084,-0.3953892836,0.9149466513,-0.7215842775,0.1834437825,-0.495877089,-0.937905604,0.9473735661,0.4092129295,-0.3524212847,0.8858972554,0.7855817598,-0.0033021717,-0.6496824253,0.1293872853,0.8362995264,0.0908339581,-0.2976939127,-0.9530075745,-0.9384037099,-0.5576582159,-0.9744902241,0.3587048347,0.840531222,-0.7842673219,-0.5108335599,0.6427005338,0.1015153496,0.1482585355,-0.5030851072,-0.6352373428,-0.9665989416,0.0821924684,-0.7632161246,0.9612546525,0.8640428991,0.1933413866,-0.5457677393,-0.9689542506,0.989886697,0.6197960626,0.4968304979,0.3978811429,0.1367722565,0.6215311461,0.2774184108,0.5657954546,-0.498035498,-0.0655114042,-0.9356288761,-0.2680724991,-0.7828806999,0.4329367958,-0.6975905187,-0.2826107852,0.5410989907,0.0859538722,0.0836870316,-0.5957504827,-0.9805247919,0.7332032576,0.0002975019,0.5119703032,0.0827308672,-0.6334289725,0.4235931972,0.9870736421
   0.7673695216,-0.0968480714,0.2261725932,-0.2562199442,-0.2965017431,0.018890661,-0.2325410664,0.2997303779,-0.8541314711,-0.5765810134,-0.8653752325,0.7009992472,0.4405231311,0.2022318888,0.3409032762,-0.0861388943,0.3105564072,-0.8577619839,0.4168352289,-0.1349167468,-0.8272468826,0.3877818841,0.7001267067,-0.1195785557,-0.168833649,0.8812775874,-0.5198929403,-0.996463534,-0.925359595,-0.7261910899,0.3062034731,-0.5169215536,0.3008319194,-0.5271649759,-0.4107670812,-0.5438375057,0.071039612,0.1677828835,-0.7519000564,0.142239703,0.485872326,-0.5697810257,-0.3789415876,0.7464571738,-0.9328211104,0.7046054089,0.2887882017,-0.6143227441,-0.4176806972,0.2918313457,-0.0154531906,-0.5205259151,-0.7943007227,0.638843519,0.8764155742,0.9240805081,0.1495416045,0.373026992,-0.1138843888,0.1424790872,0.8864267879,0.2952975615,-0.1472081216,0.6918020337,-0.0422615999,-0.8237006362,-0.8234870039,0.3603222891,0.740562646,0.414923932,-0.6692946136,-0.0462099253,-0.4678592316,0.2434298019,-0.6997947745,-0.776015982,0.2416700566,-0.6605277181,-0.6140115691,0.7152686973,0.081222868,-0.4871981318,-0.1093884883,0.4814142925,0.3636920344,-0.756094404,-0.7038090892,-0.9472123521,0.8732327017,-0.5005121767,0.8038867531,-0.2941525408,-0.5720688083,0.9455785117,-0.6526838701,-0.8706873458,-0.5704985497,-0.8125679689,0.41271319,0.119765296,-0.560568127,-0.0151747352,0.3510773619,-0.6810573182,-0.9556413141,0.2261889568,0.5468082893,-0.499584738,-0.9441499491,0.7191111533,0.437755392,-0.4750281535,-0.5265593942,-0.0712896029,-0.368906314,0.8350954677,0.540508299,-0.4533417112,-0.4131980828,0.0165998767,-0.4332542563,-0.0812981759,-0.7148725499,0.1618401477,0.8457497273,0.7015837061,0.1537341899,-0.3805004458,0.0161513208,-0.4761685958,-0.5435348115,0.5142246806,-0.2930789731,0.2576526379,0.5430443728,0.8341302559,0.5811518587,0.6303335444,-0.9484809981,0.3437694525,-0.0797186021,0.2128983927,-0.5752863863,0.7640495399,-0.3265591231,-0.0311775268,-0.6246912191,-0.3876106867,0.7159924384,-0.6768285412,0.0653531583,-0.8650943451,0.8325579716,0.7987206972,0.2828100782,0.6648876082,-0.9562028646,-0.0783231073,-0.5585181608,-0.0179891301,0.7309570574,-0.4197234314,-0.0596258918,-0.0560670646,-0.0493176798,-0.7323149761,-0.042104078,0.3655460883,0.6870937623,-0.6801569316,-0.9592789869,-0.2727867428,0.3999159227,0.3278656081,-0.6058751071,-0.3119381348,-0.9633289146,-0.6261545591,-0.1207337223,0.5781390769,0.4785532147,-0.9714032056,-0.2721350801,-0.9532895343,-0.3857054887,0.7951311755,-0.4342027287,0.7888805412,-0.8426487205,-0.8444629165,-0.8941275886,0.039434038,-0.2562206874,-0.4694840173,0.3007160299,0.1784063622,-0.8407813496,-0.8722743288,-0.3085434667,-0.7755438328,0.3358022169,-0.6033087537,-0.4624186814,0.9371164043,-0.1951202129,0.4959643559,0.0400480358,-0.2888029731,-0.5524573769,0.7677371947,-0.8226248665,0.9620011015,0.3137158175,-0.4247718387,0.5669149909,0.6874462946,-0.3638958387,-0.6380717264,0.4808085994,-0.3620041543,0.9144289294,0.5348954286,-0.0356232559,-0.3827422856,-0.1043663551,-0.6001815903,-0.497920981,0.0433159567,0.5903150298,-0.3141176632,-0.2291761324,-0.7092307694,0.962007167,0.6608181712,0.1075370562,0.4315924671,0.3489897198,-0.6937097551,-0.3530873122,0.7393840965,0.9549832553,0.0736318574,0.6112837573,0.1130072795,-0.7402390654,0.5326195681,0.9906912154,-0.6165302325,0.4542288175,0.8031395935,0.7516566524,-0.6871362604,0.9556456351,-0.2047146633,0.6991802263,-0.5827193637,0.1830958472,-0.1502813242,-0.8771090621,0.1647818143,-0.2829995221,0.731996267,-0.4934232946,-0.8858197061,0.2184919138,-0.7651525873,0.222992056,0.087730636,-0.4407151456,0.6200978138,-0.8033344893,-0.9215397792,-0.5200845929,-0.0189831256,-0.1172143042,-0.1778866889,-0.2572963631,-0.497144947,-0.6545843719,0.0822502799,0.2356088796,-0.0669534401,-0.2350875477,0.4474155522,0.4902790053,0.4254879411,-0.0900307314,-0.2724596796,0.1822770092,0.1828282491,0.5270205183,0.403810565,0.6503872562,-0.9403244298,0.1326501541,-0.4132135326,-0.9180584828,0.2115314498,-0.8017292364,-0.8980201917,0.4493146264,-0.5059777447,-0.5004314568,-0.8340782982,-0.2296334945,-0.91524027,-0.3246063571,0.9268133152,0.29757204,0.1394232855,-0.0358572266,-0.9793166944,0.7958027271,0.329551444,-0.7378273902,0.7641007648,0.6768218369,-0.6672876193,0.6464223837,0.0374450637,0.6016213311,0.1370026223,-0.5670063438,0.8960336412,0.3161115237,-0.9847156389,-0.0582011295,-0.2888775278,-0.8651213246,0.092172579,0.487128028,0.5823253806,0.3851731305,0.5309043317,0.1000324568,-0.710431422,-0.8762843432,0.0270011799,-0.2552121112,-0.9649377488,0.0108643279,-0.3286434887,0.2098271766,-0.0555122206,0.1395902466,0.0625900042,0.6311633602,0.6674512596,0.6698032083,-0.7831127196,-0.7439721618,-0.3670177746,-0.7804085445,0.8891953218,0.9816536533,-0.9391415604,0.8008761448,0.0671245643,-0.7814178943,0.0464225614,0.7136049483,-0.9500773532,-0.8225855457,0.0232229525,0.9357838959,0.9807429816,0.9653229158,0.2436089225,0.2941612152,0.4112427286,0.3796849198,0.3822020271,0.2825420166,-0.2463465281,-0.6942163076,-0.683026093,-0.5767000008,-0.179378377,0.510011057,0.2980268993,-0.6513383703,-0.1857592591,-0.0615289451,0.3916732954,-0.1708432247,-0.2384095057,0.4390705007,0.2743995238,0.3230676634,-0.2875286004,-0.023299451,0.073276068,0.2085896603,0.9048526197,0.9092557353,-0.7959757992,-0.6796340326,-0.346532595,-0.9365352683,-0.2852295553,0.5192534212,-0.4356550636,-0.9206723002,0.0829957358,-0.7188216154,0.8606921104,-0.3528845088,0.046455591,-0.5737731055,-0.9898644967,0.0536026321,0.1541019344,0.5749604477,0.0294794274,0.483804965,0.0108698323,0.1459770593,0.1092620941,-0.2926852207,0.4740241049,-0.8560096417,-0.9598866425,-0.528805074,-0.8735647579,0.1573368872,-0.1821285828,0.9472173073,0.0553648135,-0.3816750942,-0.8417492468,-0.2468018297,-0.8574774521,0.5322738893,0.6421823851,-0.725547316,-0.8760782,0.5153561167,0.275587588,0.3706555801,-0.7310200844,0.6451214918,-0.8762762131,0.5047384757,0.6772051594,0.9998046653,0.9340972116,-0.9835579627,0.394948162,-0.7628349094,-0.0593508206,-0.673719053,0.9936998865,-0.0417317965,-0.6878036737,0.517876677,-0.4035292405,0.3384342044,-0.697952575,-0.395363214,-0.7715419526,0.4814401234,-0.0633595123,0.6154263421,-0.7608035269,-0.7054504385,0.2563045297,-0.7620108369,-0.4250462446,-0.6305161744,0.9590919257,-0.1836387986,-0.1157239755,-0.2592200653,0.2170845084,-0.9013506033,-0.2366877039,0.8323789726,0.1100053909,0.5686949986,-0.1516796393,0.5000844027,-0.5195930201,0.1912286401,0.4761711996,0.5484288419,-0.6560064459,-0.3148341921,-0.2082393816,-0.6069606596,-0.6094581836,-0.7901907728,-0.8920439516,-0.2750667618,-0.0352501984,-0.4567256837,-0.2046074986,0.713224392,0.5450492412,0.4417451316,0.8831659319,-0.5924095535,0.6129586764,0.7778226276,0.0023608535,-0.0038687558,0.724519405,0.324219225,-0.3595443639,-0.7639954991,0.7636885509,-0.2450430746,0.2359949964,0.3635986742,-0.4436024513,0.2157499587,0.6323390714,0.0615528032,-0.384734799,0.9351245165,0.3279494301,-0.3772953951,-0.2821573586,-0.764621498,-0.9807736865,0.1079498207,0.4725309014,-0.3643093048,0.4435564135,0.9484086105,-0.2776085652,-0.4056729183,-0.4986702587,0.5992974382,0.4423703115,0.2672300396,-0.4048393428,-0.139315128,-0.9733925786,-0.9693731134,-0.2518087161,0.2190086881,-0.6022712796,0.7566333797,-0.2060880384,-0.9084190763,0.1715208829,-0.9521134846,-0.1850181826,-0.0093203914,0.3686389198,-0.8354734512,0.3990502384,0.5605090346,0.3931386333,0.9077683714,-0.0152916611,0.3376498666,0.157930758,0.9299988064,0.6322371043,0.0938261478,-0.7234602762,-0.7478601574,0.1905005651,-0.2784012028,0.9651119556,-0.5483838393,0.7005231132,-0.4351714863,-0.5303830307,0.3478370258,-0.0905070605,0.8253310541,-0.6802053269,0.9370166745,0.0706731943,-0.3963260344,0.1359947067,-0.5829824876,0.6136642968,-0.2473107374,0.0984767866,-0.1219519306,-0.5603741838,-0.2830162234,0.908739465,0.6061203085,-0.8743711961,0.8537614956,-0.6799913418,0.3498953809,0.0668619119,0.1186958253,0.4237403838,-0.025936177,0.6949632232,0.0580943667,-0.3882398355,0.7944123608,-0.9502233877,-0.2171581216,0.5489362533,-0.2994621101,0.7389127546,0.3899494942,0.1347179318,0.4779357877,0.5058067686,0.1640825223,-0.3578404096,0.8771486481,0.1069140784,0.625257425,0.0653402326,0.2171639262,-0.3003011024,0.0550869444,0.6669430671,0.4947014514,-0.3732711627,-0.4261213535,0.7429199393,-0.2139223414,0.6310100654,-0.2212797923,-0.3879303969,-0.3062456713,-0.6801943523,-0.5040193563,-0.9651998164,-0.8488459218,0.1017029766,0.7399835782,0.8471553822,0.061990421,-0.5434620927,-0.2435431071,0.9542436159,0.8193594484,0.023644051,0.333952362,0.5734402876,-0.921780489,0.8477218744,0.3845724954,-0.1153578319,-0.3397705627,0.2226427113,0.4522453457,-0.6744152034,0.9366734949,0.1684692417,-0.8838654173,0.5074219866,0.8226128275,-0.6165637743,-0.7413199813,0.3846181451,0.2350923567,0.410826575,-0.1729493553,0.4497863075,-0.2392003102,0.0199251739,-0.9786310536,-0.9056398404,0.2203461899,0.5505218391,-0.2105535356,-0.9083878536,-0.1451519198,0.9143722236,-0.1429094681,-0.3098088964,-0.8047176528,0.0515521311,0.5414368128,0.8570920373,-0.6132850132,-0.4848045414,0.7295882789,0.0251195989,-0.4172698852,-0.7931615392,0.4685061204,0.2466245303,-0.2188697979,-0.054974607,-0.208122573,-0.368989537,-0.6253126994,0.95604802,-0.2783946324,0.6128829236,0.5594375269,0.9879804258,-0.730638272,-0.2212909353,-0.760896904,-0.5648397547,-0.4789327927,0.2587120653,0.8894479598,-0.2168442233,0.1434153594,-0.7866652367,-0.2927185515,0.6368322816,0.5921529533,0.0132223664,-0.6876961874,-0.5689929016,0.1032190199,0.4425447311,0.7423955848,-0.7495217669,0.7495410947,0.9227666184,-0.6260586201,0.7262850299,0.2767773349,0.8910193781,0.1511551837,0.6294694642,0.3532716615,-0.750197917,0.3887234774,0.2940364157,0.2709162258,0.7350914813,0.9696576764,0.6449455199,0.3461069934,0.5553520873,-0.0660524072,-0.9220420655,-0.7152064829,0.9587103488,0.8256246043,-0.5917479303,0.1197854313,-0.2250764127,-0.8746661724,0.158380181,-0.131434573,-0.71569323,0.6534396072,-0.5421532977,0.4648564108,-0.9982826656,0.2046159756,0.7597662251,0.0982677909,0.7138109737,0.7654463503,-0.8775223247,-0.9485554545,0.3288172335,-0.1307492545,-0.6796080393,0.771991049,-0.1558044971,0.0314571768,-0.6948296102,-0.9159518143,0.7410074554,-0.999977164,-0.3955899329,0.1194927495,0.7817873501,-0.6972286658,0.917863033,-0.4522696812,-0.0556996344,-0.7038242681,-0.1421560693,-0.2016788774,-0.5707403039,-0.3786857349,0.3501597823,0.2014738418,-0.2458734671,-0.6853453301,-0.9891723951,-0.0206249621,-0.3775721272,-0.5082777831,-0.0861562606,-0.7583331379,0.045327747,0.4318111597,-0.3435440312,-0.5302433779,-0.7336745878,0.2276607349,-0.9629435794,-0.8031985092,-0.9063389047,0.0722188536,0.303722507,0.8415353113,0.5788229597,-0.0106458399,0.9272702123,0.9298571715,-0.9838839781,0.3237088259,0.7487050957,-0.5870579905,-0.1617094398,-0.5604032188,0.6404935315,-0.1978664344,0.831863341,0.2394669053,0.0877929956,0.15166875,0.9680092015,0.988257072,-0.0435078758,0.2854273154,-0.3336533474,-0.3443455181,-0.9004989091,0.2511400122,0.975511798,-0.7301136212,0.4540919693,0.0118012367,-0.4247476568,0.6780020149,-0.4739371583,-0.8089185694,-0.2854599312,0.8719277184,0.5139885862,-0.0374383757,-0.3260883709,0.2897655735,-0.7717651446,0.1117849083,-0.0773566309,-0.5239047314,-0.5239175576,0.8472672145,0.2765231799,0.9592571498,-0.8848594631,0.712302225,0.6239839714,-0.077601726,0.9574006801,-0.9117622319,-0.0307461584,-0.837750936,-0.3969487544,0.6712439659,0.6465461512,0.1586715121,0.5385349006,0.9499379633,-0.0086594287,-0.783165711,-0.7091381605,0.7704381061,0.3847771976,0.58037023,-0.519560438,0.4912594368,-0.3555648387,-0.9063809922,0.0604128315,0.280819641,-0.4408574813,0.428489047,-0.6369472211,0.5220537414,-0.6754541298,0.1823414004,-0.14488698,-0.5718936873,-0.9237855263,-0.502425151,-0.8885147075,-0.2143207427,-0.9718108751,0.6759774986,0.6269759269,-0.4703916328,-0.1351879497,0.927813665,0.6911931156,0.9230774134,-0.2852334545,-0.0260414287,0.5801779537,0.4038073973,0.7387855345,0.9266556762,-0.465031576,-0.250538404,-0.7577512193,-0.0144172116,0.6100330728,0.2377911987,0.747653299,-0.0012563127,-0.106960164,0.5027584963,0.5680619224,0.3114620896,-0.8930059647,0.396384022,0.6639427842,0.9382553677,0.9159716489,-0.0042063312,-0.1689411075,-0.0366104359,0.7905942796,-0.0664684282,-0.7972881386,-0.8879632691,-0.7138205559,-0.6449133877,-0.124280637,0.1297395539,0.4634009401,0.1541123207,0.9451253685,-0.0825605533,0.5315251064,-0.4968070632,0.8785399282,-0.9923559336,0.1164476832,0.9757233844,0.7359388427,-0.2704261842,-0.7121020936,0.3920938133,0.6192863669,0.1952536629,0.0941924541,-0.9373930633,-0.7940707661,0.4602560438,0.6504211478,-0.9039568204,0.4655149392,0.8900638346,0.2000286697,-0.8540923838,0.027381936,0.1419284772,-0.3580637822,0.5928058823,-0.727605055,0.3381917737,-0.5037019489,-0.8717829197,0.6652574798,0.8338718626,0.998457044,0.6734544181,-0.7824941159,-0.2668323617,0.3659062583,0.095252676,-0.0892588452,0.2464666448,-0.4801438314,-0.9345173053,0.2324145822,0.7686803534,-0.9600324032,-0.4529975597,0.7589327183,-0.9188115325,0.2010709864,0.1743480635,0.4324763632,0.5120955966,0.0155146612,-0.5332531226,-0.204783779,-0.0173417088,0.5129711076,0.9131985541,0.9024325603,-0.7004131751,-0.705225287,0.6709130193,-0.8609987558,0.2555739355,0.3142653088,-0.0484713171,-0.7260566097,0.1623316359,0.8841480329,0.393417067,0.0901125983,0.2886194071,0.7464640526,0.7281854799,-0.3138193739,-0.6508491179,0.5891148476,-0.6805350374,-0.6793666214,0.6656240926,0.7910669567,0.3001678304,-0.0195362574,0.5645949909,0.9971588395,-0.9658171111,0.849101883,-0.4817560769,0.0534527979,-0.9350234096,-0.3895400416,0.167129796,-0.5601043535,0.9667544304,-0.5608781741,-0.9156505951,-0.0959877,0.6375200585,-0.8382262465,0.4444455345,0.1075611092,0.3461383009,-0.3212924297,-0.07983454,-0.6513184301,-0.1454765512,0.3831404846,0.0308787579,-0.5834087394,0.2598774021,-0.1204615112,-0.0303969573,0.5815701986,-0.0676261632,0.4246800028,0.861868203,-0.3540134876,-0.7801074205,-0.7164179578,0.1287754584,0.1613272737,-0.154977809,0.0944300411,-0.2052666511,0.2846389822,-0.1735470904,0.4246842389,-0.0298121785,0.4085094242,0.4533331919,0.3279067703,0.7344665678,-0.9017241499,0.3054076563,0.7527550431,0.8920425419,-0.7331128423,-0.6737511735,0.6146793147,-0.4135951701,-0.4544766656,0.9618492942,0.6398873842,-0.4137703257,-0.7478690876,0.6809670938,0.4929118374,0.8029400738,0.0488750252,-0.7039280029,-0.2246630203,0.1697796606,-0.8876453667,0.7656795403,0.2354112227,-0.1993979312,-0.5562189165,0.8089164319,0.4415120099,-0.1940682137,-0.8604764463,-0.9427864593,0.5571229733,-0.5098238756,0.0825624238,0.2444116866,0.1003977696,0.7954926523,-0.2754999156,0.4527375785,0.5890158809,0.8925688285,-0.7553046697,0.7387168092,-0.4026747347,0.4896740105,0.9546412188,0.4845483365,-0.5446363243,-0.6375181154,0.670872369,-0.6753603474,0.4662723595,0.1761543796,0.4993962413,0.4320570372,0.4031426792,-0.4848717676,0.2841686765,0.5140949042,-0.4765131474,0.3923193653,-0.6020916819,-0.1090986645,0.5027227419,0.100944816,0.9118653827,0.1825739305,-0.8201545796,-0.9060932045,-0.0498804818,0.8159105578,0.586491823,-0.9992329295,0.1055799961,0.2697399532,-0.3703543705,0.1736599063,0.2954269517,-0.3342802797,0.5289144281,-0.6761593967,-0.9111170244,0.54201441,0.7622262464,0.1052461838,0.0357380369,-0.3308445229,0.9099042274,-0.4206288907,0.221197539,-0.8195606245,-0.3239283007,-0.6570384616,0.8942527555,0.8454875039,-0.8399596893,-0.5221702266,-0.055608463,-0.6922919862,0.621756454,-0.2884906259,-0.4700385041,-0.0436214616,-0.2962406446,-0.2392250736,0.4374866309,0.6961450241,0.3942122109,0.8010370873,0.0311387869,0.6443901678,-0.3885618953,0.9333887117,0.0594988728,-0.9963016435,0.4803547476,-0.2914781552,0.8777647967,-0.496330706,0.3700774,-0.0035716662,0.0486264029,0.9045766489,-0.4774780772,-0.4463711664,-0.4768331395,-0.0780156444,-0.337272241,-0.9676334848,0.864820913,0.8977123381,-0.4171503457,0.0031253371,0.8738247074,0.4549266379,-0.7637741882,-0.8737071768,0.7136810116,-0.8424005732,0.5714643656,-0.1093903239,-0.3056089397,0.5695500184,-0.1018069121,-0.0527830982,-0.5334513429,-0.6546665528,0.9787641205,-0.3989791558,0.8546444976,0.3225670574,-0.0940942246,0.7096203713,0.0122352867,-0.163166844,-0.1855098708,-0.3991167471,-0.6037940913,0.2657623574,0.3472087289,-0.6990083057,-0.2052617671,-0.8690353883,0.5114552414,0.4058518103,-0.2908499349,0.3133871752,-0.7311830106,0.8263467932,0.8012411674,-0.8431562207,-0.8576614226,-0.0205759953,-0.0528114892,-0.4923717972,0.5148717782,-0.4572969792,0.9681078933,0.9769698047,-0.3098698734,0.4472558347,0.6595283916,0.8296763473,0.9478381573,0.2422636278,0.290266974,-0.7987556143,-0.4025528549,0.4239458932,-0.7614042792,0.3066508171,0.7617351384,0.9513303893,-0.5079638495,0.0411629467,0.4451345844,0.0600657042,0.3421224079,0.7481371036,-0.1092291083,0.8667635531,-0.9331027769,-0.3356743141,0.3383959434,0.5312480635,0.6820297505,-0.5958857333,-0.2169667634,0.8092581323,-0.123543522,-0.5542387237,-0.7902752753,-0.8904529441,-0.1913468382,-0.271516726,0.8723776227,0.0708784661,-0.1552397562,0.9830932939,-0.4431692952,-0.9167153605,-0.4409149021,0.4507358208,0.2402597943,-0.5895213517,-0.2277526325,-0.9438330044,-0.2172790795,-0.646647404,-0.6124134503,0.5926712289,0.0359215777,0.6341417381,0.3549144415,0.4467907715,-0.4738291345,0.2418717212,0.7327251165,-0.1987875145,0.5273471443,0.4570701287,-0.0836135426,-0.0478691921,0.1151840381,-0.1485903991,-0.4026657044,-0.9218680693,-0.3105522817,-0.3278432271,-0.3559427769,-0.4644304825,-0.1832872763,0.8769244325,0.7145737232,0.2691787109,-0.6981255013,-0.0202622701,-0.811934768,0.1190304347,0.635615277,0.0977301985,0.9677189577,-0.2860697487,0.4461988047,-0.5996279482,-0.1003402864,0.7843585226,-0.8007282159,0.8959761879,0.1526946781,0.4245877102,0.2897950747,0.5214728673,-0.5734867295,0.3394403943,-0.9427538237,0.2841565105,0.0327687883,-0.3960610195,0.7104748168,0.3654967998,0.3517827231,0.9050664247,-0.6928264857,0.1916188759,0.3815572537,-0.6985887474,-0.4650172538,0.7248557431,-0.3425103567,-0.5565414272,0.8924332539,0.7828872228,0.7496190162,-0.5286842006,-0.3215663793,0.2091041866,0.4289714292,-0.0737784568,0.8281395654,-0.5555710547,-0.8582517011,0.4532858584,-0.7562336498,0.009602104,0.1377128894,0.0753156419,0.0195060624,0.1941209683,-0.9710159963,0.1099747096,0.6301342293,-0.8277654133,0.1179889424,-0.6860238413,-0.6383245533,-0.5893543089,-0.0611535076,-0.2956329164,-0.5820352732,-0.6143710818,0.9182548763,-0.3997718208,0.2768297539,-0.3381892428,0.2310353128,0.7694800508,0.4258815469,-0.9026047089,-0.6673487918,0.1819633283,-0.3964572983,0.6966195216,0.1216701211,0.5130718379,-0.8612656714,-0.9661193253,0.6880800609,-0.1751863441,0.3879065226,-0.8238368769,0.2710510564,-0.3203879302,0.0795943366,0.3441098702,-0.0765092482,0.5155889209,0.4366557338,0.5313095005,0.9602174057,-0.2119605386,-0.9979937727,-0.0128992855,0.9570182314,0.5706810042,-0.0398499448,0.2767494143,0.3496071485,0.459967741,0.7188136059,-0.1631090539,0.6696820791,-0.9336696776,-0.0221416963,-0.6992013312,0.4326725269,0.0269405125,0.4615582081,0.5532450296,0.4204387655,0.7322101593,-0.9029999992,-0.9496062958,-0.7198068814,-0.5517502815,0.2502506189,0.2888839546,0.709685785,0.3883053281,-0.3496275601,-0.9010058891,0.390307454,0.3175239858,-0.7443927749,0.5372077074,0.9362460933,0.3319827443,-0.3636991559,0.5183600759,-0.6287895725,0.1240194793,-0.7287123983,-0.3580893378,0.5330250396,-0.4569530424,0.4729009878,-0.7969445903,0.3513549243,0.2329754147,0.7237322293,-0.3498291108,0.8047462139,0.4583110496,0.379030637,-0.0005757357,-0.0880976514,-0.8302704921,-0.5248253433,-0.7042174439,0.9394576195,0.798927381,-0.0885450926,0.87453385,-0.2921520709,0.703855154,0.6276158798,0.86593359,-0.5883749373,0.5233792182,-0.6315742739,0.4360675287,-0.4983113947,-0.9847952973,0.0429708414,0.8959937273,-0.9925846437,0.465072906,-0.5617664393,0.1723592603,-0.7072848784,-0.247131264,0.0543601629,0.9530292311,-0.6310506929,-0.045879723,-0.8431582996,0.1215009743,0.7577141714,-0.033331092,0.850525466,0.1061726015,-0.85318011,-0.4061959148,-0.6062753566,-0.6811723463,-0.2581705781,0.0742396034,-0.4044099089,-0.5006485323,-0.8394428147,-0.9230721165,0.2804010825,-0.2795143535,-0.1391662244,-0.7252951668,-0.8060395359,-0.3321886825,0.9980580718,-0.384164176,-0.9122137651,-0.1735199416,-0.4939275453,0.4481499767,0.4343415418,0.5351602853,0.0486376959,0.969193522,-0.9645463047,-0.5021359133,-0.3467457612,-0.0662392756,0.3000369901,0.9906674299,0.2377674128,0.1736921081,0.1063010193,0.7152420488,0.5431730677,-0.1471264078,0.06869077,-0.5141006895,-0.1581914773,-0.9621604519,-0.6384121229,0.0641956559,0.537891997,-0.4828803535,0.0987740894,-0.0734678957,0.1806529884,-0.2754774303,-0.7376848359,-0.2244928917,0.4399066446,-0.115581112,0.2304249068,0.9970049298,0.5348514559,0.9022534359,-0.0778881855,0.7851009994,0.9502811663,-0.3130426638,-0.3489663841,-0.8631517247,-0.8892575652,-0.9133218408,0.5857453952,0.0690323263,-0.740427467,-0.1282821572,-0.6318207643,0.8123196388,-0.4629017579,-0.6101809038,0.3307896184,0.938024076,-0.7720822121,-0.7304242284,0.3026232808,0.1611436106,0.227591199,0.4569521706,-0.8474390097,0.1860573258,0.0297248672,0.7455464184,0.1210022009,0.5702004804,-0.2840363303,-0.6824851472,0.2557601025,-0.7556642874,0.8460630263,0.9903575694,-0.6855427157,0.1257505422,0.4202749979,0.6616917962,-0.768385603,0.438676065,-0.0305677225,0.8227839143,0.5889213347,-0.755905117,-0.4325460526,0.4159445379,0.7095673624,0.2624548107,0.2101403335,-0.2338666759,-0.477601783,0.8836710533,-0.7829939326,0.4052201304,0.1085309436,0.1615546604,0.9957760366,0.09501578,-0.6531086292,0.246409471,0.7112476711,0.024956647,0.1193248,-0.4008931081,-0.1190117335,-0.8540874045,-0.88893873,0.535448964,-0.3175304719,0.1646026654,0.7659577155,0.6500818108,-0.8041759535,0.8335548207,0.0963273748,0.1019975946,0.798838139,-0.7520236562,0.9052988486,-0.4182872665,-0.548655437,-0.0983475664,-0.9748219861,-0.3691177424,-0.9116381452,-0.1311748657,0.5556558929,-0.0969997668,0.3612172513,0.7120921509,0.8922098635,0.7505972042,0.403043299,0.8107739548,-0.5697483662,-0.1618890342,0.5730137494,0.1191417651,-0.5908567539,-0.1694347905,-0.2503416426,0.0692085895,0.0641104282,-0.8703898267,0.3787821971,-0.1613993276,0.6539835269,-0.471350994,0.2067972081,0.3081269706,-0.3780228442,-0.5334998109,-0.5476929117,-0.0908061099,-0.1416177775,-0.5176087403,-0.6253632526,0.4696860586,0.0109822,0.6526543708,0.7836095596,0.4992971866,-0.8058506073,0.6363257499,-0.1770725814,0.8162294768,-0.9391781884,-0.6317786334,0.4029740656,-0.6394570396,-0.1345282406,-0.8208491011,-0.4189160602,-0.566105078,-0.5247586121,0.6327253023,-0.951469371,0.1042517596,-0.1757398783,0.2338369189,0.0252613115,0.8348309438,-0.9075611429,0.597657515,-0.8883489393,0.133802179,0.0338666812,-0.1936619443,-0.5381620897,-0.1156317053,0.640792407,0.1901103634,-0.4539342542,-0.5975376932,-0.8947426107,-0.4337862762,0.2670805164,-0.6419756133,0.9201798663,0.506334538,0.9188589641,-0.3348119428,0.3121184752,0.5974540283,-0.0438402954,-0.4144683912,0.3502275023,-0.4174660045,0.2986890724,0.8997613606,0.4895647339,0.8884448768,0.4101295994,0.9908337256,-0.2079859924,-0.3302620844,0.1353706976,-0.6316516559,-0.3122093116,-0.6723247713,0.1122235805,0.4405557056,0.1793832842,-0.9225002346,0.6723072273,-0.8988082866,-0.809865428,-0.1494456529,0.8852413431,0.8711375761,-0.5462894924,0.58599012,0.6016830734,0.0043122487,-0.0851206814,0.0430379167,-0.1641969933,-0.9765207312,-0.7481252322,-0.8950096857,0.0298738554,0.3896505043,-0.1693215752,0.0990889527,0.348445517,-0.3404594183,-0.4537387325,-0.5044370618,0.6679691979,0.5550804857,0.2799809048,-0.5530413443,-0.9552086248,-0.3512330432,0.6956376231,-0.7562871347,-0.6932572534,-0.1195622144,-0.5241361733,0.7419259523,0.9908101359,-0.7370416228,0.0460226044,-0.9829126726,-0.0293114629,0.9520697732,-0.6979685008,0.1090022493,-0.5378906923,-0.612322417,-0.7155050301,0.2452205987,0.1278824261,-0.3315705539,-0.5044369231,-0.8411379606,-0.298489737,0.4496793956,0.371040134,0.8240158445,0.095098383,0.1169662866,-0.3872031641,0.2871653641,0.0179210843,-0.4095827227,-0.7986084019,0.6743107448,-0.7004294547,-0.1698182546,0.7358947131,-0.8061301811,-0.5036771912,0.7280384756,-0.0007574053,-0.9574886184,0.9748219206,0.1002057242,-0.3940351079,0.2633046851,0.4127215622,-0.2218128821,-0.4604578343,-0.9169802006,-0.1156411524,0.2596633983,0.4437785358,-0.0276145324,0.2098265353,0.2586092192,-0.9595669157,-0.1896427296,-0.5078774808,-0.0833290643,0.25163846,0.7421726518,-0.5414171369,0.566651718,0.941032159,-0.5859507889,0.4666195682,-0.6046176341,-0.7800816016,-0.5588530025,0.9573778282,0.9812926554,-0.3556868462,0.9754844776,0.6514625577,-0.4315079098,-0.5549924449,-0.5349988585,0.3036802924,-0.8587227709,-0.5259072244,0.3425851331,0.0212162365,0.8317902532,0.4415895526,-0.6535774787,-0.0094806025,-0.1304310585,0.6416373805,0.7387419808,-0.4831400416,0.0339462426,-0.5336976766,-0.2637419516,-0.5537059166,0.6778511822,0.2018744608,0.8955767631,0.8500775714,0.7879899448,0.0113107995,0.6068766252,0.2820040418,-0.1683414931,0.1933031566,-0.3851093691,0.6155825201,0.0845817584,0.212255094,0.5054018624,-0.6556974493,-0.7124063333,0.8941879767,-0.2500911106,-0.7508196469,-0.0500519531,0.8413814442,-0.5891798161,0.0540955425,0.063047154,0.4203674494,-0.6793219502,-0.2909558912,-0.2483970405,0.7302472021,-0.3216373664,0.6971210998,-0.1739979301,-0.5635612136,0.7577121545,-0.2449728961,-0.6954511935,0.9892122218,0.2908397074,-0.8158463831,0.0856467408,-0.1104429569,-0.4366847307,-0.0055854466,0.8515797096,-0.9469911039,0.2193510247,0.9212516587,0.8103353794,0.2698557871,0.451537898,0.8818223477,-0.8628148646,0.6858392326,0.5718078131,-0.3264311979,-0.7107970265,0.7867220311,-0.7434533188,0.4297366849,-0.6211295663,-0.0828807398,-0.1236600383,0.9261718145,0.9187549989,0.1097444115,0.5059902921,0.3962207089,0.6795377006,-0.0369137086,0.3185701274,0.6782364082,0.053348245,0.9700061661,0.509660866,0.3908041396,0.9080175156,-0.1431614559,-0.2976248816,-0.1592359522,0.5984178128,-0.0471185488,-0.4327501535,0.6793204375,-0.262800028,0.5172576227,0.8823440453,0.066711847,0.922470415,0.7434127701,-0.6411014779,-0.5178755823,-0.4431352233,0.9461710058,0.35216977,-0.2242755538,-0.199930036,-0.3623495351,0.4431547506,-0.436426044,-0.3389115157,-0.6399575178,0.8603686408,-0.4606056618,-0.2602863303,-0.5365614135,-0.7987488906,-0.0975757369,0.9282399367,-0.1246793527,0.7308943286,0.3676663837,0.6876850103,0.0223807641,0.298069658,0.7754780663,0.278775306,0.5757280659,0.1151118518,0.0399964295,-0.303426542,0.2150025443,0.7460975289,0.2204488527,0.9040966163,0.9321550943,-0.2698038092,-0.4404154555,-0.2298348544,-0.0431001329,-0.5200700401,0.050896385,-0.9893692623,0.6965189619,-0.2487824814,-0.9408738035,-0.8730491651,0.4738274181,0.5063186083,-0.2017306323,0.2588169511,0.5617037545,-0.737690841,0.0633362317,-0.785023712,-0.1965609865,0.729537909,0.7571447129,-0.9734896781,-0.7526152852,-0.6967172419,0.5780984413,-0.4893981029,0.1630432878,0.5829952547,0.3471277689,0.3644951957,-0.8335261476,-0.6043464638,-0.3487124244,0.7815426518,0.8449701096,0.8758941329,-0.3614482044,-0.2363480097,0.5476654084,-0.7350142021,-0.7300431861,0.3335983502,-0.2366537816,0.4679870413,0.1433462955,0.3620607393,0.1147735924,0.0566355608,0.1536820153
   0.9161555541,0.0574673861,0.7051952241,0.3323729914,0.5920608258,0.2595508801,0.7225925425,-0.1083381266,0.0448517945,0.9224215078,-0.5717957513,-0.7294538713,0.5481866835,0.6629204996,-0.6419038424,0.787250885,0.6976853117,0.1069058861,0.8838701074,0.1449916719,0.8840304457,0.412500724,-0.9471718159,0.4223453465,-0.9705259387,-0.6109817941,0.090215618,0.5441313955,0.482100295,0.6605326187,0.9339373846,-0.2752055735,-0.8847568408,0.5343264156,0.3537166475,0.6058449384,0.743531292,0.2888108247,-0.0139193622,0.659268487,-0.3053776652,0.6732532907,0.2723148325,-0.9884999089,-0.302306242,0.5989900235,-0.6255191407,-0.1252127808,0.2381121664,-0.5164813123,-0.6191620273,-0.4444604875,0.8147134173,0.9436721,0.5308218143,0.7498034696,0.8609814614,-0.1431238775,0.3098039735,-0.2388437004,0.3480687222,0.9302048463,-0.8713404698,0.3709234879,0.2267440742,0.960017648,-0.4269551009,-0.9973604577,0.3737323231,-0.3962878486,-0.3526894833,0.5183906308,0.7501755286,-0.2425482438,0.3291782173,-0.800810731,-0.1684943186,0.9803955267,0.7056555714,0.88679425,0.3631444228,-0.4727944756,0.6065766857,0.3943477706,-0.838608814,0.034211716,0.5678448914,-0.3310178924,0.6819319957,-0.6381285819,0.2756784471,0.0083942206,0.7837364371,-0.7969110514,0.1993732243,-0.8809969982,0.1756026836,-0.6831230158,-0.7824817685,-0.2625761175,0.5092974309,0.2887494677,0.6489514765,-0.4753055101,0.8022024967,-0.6888272883,0.3663539798,-0.1142174586,0.5986952339,-0.328617639,-0.6313594972,0.8918462785,0.5590354984,-0.7546610807,0.6898310506,-0.8834892575,0.691979161,-0.1449984096,-0.2205999862,-0.8698723992,0.3295568525,-0.5529362608,0.1306914119,-0.9553288328,-0.3938468673,0.3630891356,-0.4636064075,0.6488296174,0.1032559724,0.7521361022,0.3889197518,0.9924412457,-0.7100398344,0.0752724911,-0.7483439844,0.1743405459,0.875395852,-0.9151822604,-0.2731326339,0.4979980648,0.9852877494,-0.6001988788,0.9099126099,-0.2520906915,-0.016131147,-0.4937577652,-0.3413087582,-0.5187757241,0.4863663211,0.2052546462,0.3916170226,-0.3661811424,-0.5916544929,0.8326181277,0.2661558995,-0.2136608577,0.5945738569,-0.2670068855,-0.3462181917,0.1650984674,0.1551076433,-0.8233365969,-0.8150235477,0.159200834,-0.3029044369,-0.0480250433,-0.3709547363,-0.2240884189,-0.195031088,0.9639603902,-0.5661070456,-0.3898202345,-0.5990457119,0.8473877766,0.5432256699,0.2670578416,-0.6542620867,0.786632994,0.0064130294,-0.5130423546,0.3599520537,-0.2330136078,-0.2385037773,-0.2233321272,0.7149399975,0.6231569768,0.9981296142,0.4517311503,0.3103602286,0.0699633646,-0.7950112481,0.9823091481,-0.0860312849,0.9893157685,-0.846283465,-0.9208474096,-0.9141110497,-0.482660147,-0.2212661432,0.7239263002,-0.2824527903,-0.3452275994,0.1063970738,0.6649633943,-0.0382717149,-0.2232700124,-0.3402984768,0.1513572916,-0.3779527403,-0.6371340146,0.9217508947,0.8885058274,-0.1745108287,0.4093449007,0.8260311342,-0.6405662027,0.7546454026,-0.6787156241,0.4241438046,-0.4910412085,-0.7429079208,-0.4583552487,-0.0118389405,0.5927750208,0.9377803483,-0.7505352294,-0.6366152574,-0.1197400452,0.7490603506,0.1475937313,0.376363498,-0.0277454854,-0.4876925573,0.2092084677,-0.2354975379,0.8030195719,-0.8329565714,-0.1331152646,-0.6082966348,-0.5298094199,-0.0779430497,-0.9517156523,0.5421164639,0.5600303233,-0.0782970808,0.9870992843,-0.7479878304,0.4705617738,0.2852919315,-0.9920527063,-0.7841602892,-0.6031478927,0.4540369111,0.8837961458,-0.6471882709,0.2844683201,0.7152054749,-0.4412661378,-0.0407667328,0.9262233492,-0.2886217643,-0.057736041,0.4803166333,0.8690227194,-0.6193878004,0.8543295312,0.9990733673,-0.6915166124,-0.8583753725,0.7978889614,0.7883524533,-0.8214199676,-0.2751541875,0.7588353916,-0.5695192072,-0.587624511,0.0995817717,0.6775048227,0.9018134259,-0.3939440568,-0.2048478125,-0.4217271492,-0.8389833028,0.0926496593,-0.2912990372,-0.7648394385,0.3972818369,0.4318191666,-0.7588658828,-0.8311742707,-0.7021480547,-0.1096721946,0.4179914945,-0.5315351225,-0.6141332039,0.342277111,0.1115898156,-0.9600710307,-0.1828002864,-0.1877445223,-0.8317407491,-0.7140894118,-0.8265512401,0.0248714209,0.7653423642,-0.9570501442,-0.7946680507,0.4296073731,0.2026172709,-0.7283195606,-0.2578896719,0.9890305789,0.385752496,0.9504582189,0.7126838483,0.027487599,-0.383171714,0.2863600746,0.0970221895,-0.3521930872,-0.3115259193,-0.1636622579,-0.4938143182,0.2594436257,0.4865957707,-0.5910224805,0.2620235566,0.7857002415,0.7104140825,0.7001344944,0.5841173101,-0.5759661149,0.9887625117,-0.2294433451,0.709059074,0.0695846229,-0.7494461451,0.3629887991,0.7269245667,-0.239367838,-0.877492932,-0.9617376128,-0.049306752,-0.0661662757,0.629254228,-0.8114417137,0.324233898,0.8177810581,-0.23187044,0.3190600844,0.3426123168,0.4549382568,0.3834027552,-0.903870584,0.2727568131,-0.7402016622,-0.2408454207,0.1117619731,0.1393986046,0.6362132533,0.3150017815,0.7586995889,0.6822645374,0.9083554941,-0.6499262063,-0.7399763871,-0.1710499815,0.141600638,-0.4404213873,-0.3989630482,-0.0947152785,0.184628024,-0.9490319859,-0.2941993765,-0.4953849032,-0.2921619906,0.9012020116,-0.3889278562,0.506720227,0.5902052008,0.1663700379,0.4958855206,0.5998819693,0.2807757492,-0.3349617013,-0.9264792542,0.7715778542,-0.360161673,-0.3511387504,0.7529470821,0.5060168582,0.1890080144,0.7373028433,-0.1564416677,-0.3673575748,-0.7099788163,0.0648110038,0.2882946013,-0.2302376515,-0.4998763317,-0.933988161,-0.6502691449,-0.3113816786,0.6523499062,0.083173601,-0.5693400894,-0.1010091099,-0.4423102984,0.6704640966,0.7162731808,-0.2678449226,0.948847091,-0.2773424699,0.6997274286,-0.6507037316,-0.7810711853,0.1748374543,-0.4021918115,-0.5685944406,0.3104327902,-0.2654855377,0.8778121922,0.7090008183,0.0398280234,-0.7650013565,0.9196059308,0.259471831,-0.6028367856,0.1773821814,-0.7734250009,-0.6112296458,0.7869216002,-0.0398521438,0.9386914695,0.5611250046,-0.6785524453,-0.3232185877,0.7379390863,0.2098404956,-0.1485275138,0.3137735354,-0.5120683321,-0.1356331293,0.8568483145,-0.7089056165,0.0433491065,-0.4162220462,0.6295572009,0.3704399791,-0.8652264273,-0.2586259616,-0.0853536563,-0.0615734666,0.7781047856,-0.2624876055,0.8239010244,0.0130895865,-0.5669146071,-0.4955227872,-0.5824229083,0.9150649008,-0.1174794331,-0.6834367711,-0.8869561219,-0.9961007073,0.2765042932,-0.5421700003,-0.1190569299,-0.3178013633,0.1617720704,0.2096863873,-0.0308479628,-0.4605780804,0.6436619585,0.4463967378,-0.5222525129,-0.9609985488,-0.6381163984,0.7788482825,0.9789146328,-0.5826131812,0.8303162905,0.1101654138,0.133538769,-0.4640973213,0.5983503661,-0.8708002069,-0.8015996092,0.1106941596,0.7084560473,-0.1180504588,0.7331800317,-0.1965124234,-0.7189945124,-0.3921453027,0.0055938095,-0.6340412264,-0.5422121073,0.6740312528,-0.6841683902,0.3969215169,-0.6591724122,-0.4518018689,-0.4740543777,-0.0399208858,0.3077653034,0.5350563715,-0.903935906,-0.9524564144,0.7508758933,-0.35521835,-0.4006278945,0.0379112308,0.7059481696,-0.1832503521,-0.3949823192,0.1817152165,0.6720358505,0.2850172384,-0.9823298998,0.2049286459,0.5188663995,-0.4451970862,-0.016088931,0.8170185497,-0.2491270259,-0.7605734418,0.374715304,-0.3952685908,0.3677588921,0.917133722,-0.4366379075,-0.8640467658,0.4774024547,0.4009454686,-0.4323604135,-0.8615927847,-0.2186764304,-0.2283838334,0.3790651162,0.1018535126,-0.7459017047,0.4265203486,0.3416292606,0.017807674,0.6125908604,0.2857981443,0.20250449,-0.9308431529,-0.7896348425,0.7302983843,-0.786176608,-0.106557342,-0.5929648657,0.1114391082,-0.1470887272,0.4878222873,0.2518108668,-0.2171201523,-0.7686151879,-0.1510849076,0.0127910372,0.8893488411,-0.2281138689,0.8371877454,0.3195483639,-0.4547535289,-0.2226492295,-0.3587718858,-0.3467958659,0.6524286738,0.194729212,-0.0344757378,0.6340117045,0.1669723823,-0.9611944897,-0.0189914957,0.6201905276,-0.108924914,0.9942660844,-0.7219958774,-0.1869106106,-0.6677997441,0.6950403852,-0.9647630957,-0.9584691993,0.7489491043,-0.1637269336,0.2869644724,0.0285715191,0.1404359525,0.3274355451,0.8164411843,-0.7494051431,-0.5686864377,0.4393907701,-0.2975896233,-0.0368810833,-0.3500673893,-0.1691852912,0.8669203953,0.528463511,0.9585131001,-0.1314229015,0.6388299771,-0.8554356461,-0.4381772099,0.4156237649,-0.5774175794,-0.0611907607,-0.9938857158,0.7219237396,0.0591892216,-0.4811230511,-0.1228306656,0.6024402429,0.9477739307,0.3822530478,-0.4209811796,0.2712144258,-0.9580369151,-0.5224033303,-0.0478094436,-0.1975907198,-0.4295499287,0.3980061258,0.5806897855,-0.8018693398,-0.6130273433,0.731688832,-0.9971999192,-0.6894938859,-0.6850233868,0.0694545203,0.4268966792,0.3885072484,-0.4274746836,-0.7162612279,0.9272549614,0.8173697733,0.2822855827,0.2505644281,0.8054223754,0.0094605969,0.3094339259,-0.8396320144,-0.8312373715,-0.6435644534,0.7563792296,-0.412049528,-0.834874918,0.2846387807,-0.7665503661,0.7877568752,-0.371739786,0.2162805969,0.3239415311,0.941078668,-0.8123027873,0.2861483202,0.5023294805,-0.1267236064,0.8032123414,0.7846095841,-0.3377466357,-0.7582946688,-0.2181054679,-0.1253063113,0.8701912148,-0.0991091633,-0.3071097465,0.8475535927,0.4128910887,-0.1501406264,-0.306125613,0.9167512152,-0.3681887626,-0.8987822536,0.3594432224,0.3739185807,0.0296114738,-0.8245890957,0.942239237,0.8273145327,-0.8839273915,-0.6414278284,0.6718045641,-0.9067005946,0.7912646693,-0.3690100321,-0.0659772626,0.5263770745,0.0083659446,0.1479778053,0.2753149992,0.0414051577,-0.8966744403,-0.0128796819,-0.5028010377,0.4019361145,0.7771430724,0.5686273841,0.6173602367,0.3842703097,-0.8129516129,-0.6196322041,-0.8415794733,0.0063746774,-0.1568236402,0.4756847735,0.5738789668,-0.7532787185,-0.3487022868,0.224545567,-0.9479441977,-0.9320831029,0.0887602029,-0.4305999764,-0.4855243853,-0.516305598,0.4144268814,0.2728589682,0.1191284967,-0.5529226979,0.2050081649,0.0226302057,0.5162998829,0.9145973396,-0.2232317166,-0.2744004988,0.3422623301,0.2536035959,0.5399082932,-0.2220636009,0.2394380782,-0.2843807564,0.1760385033,-0.3703272741,-0.0560463143,0.6368239915,-0.8599648143,0.017758203,-0.8736464046,0.9013989404,0.860389634,0.3270003041,0.0443130531,0.5667848613,0.832730631,0.0343630582,0.1924515248,-0.8368910832,0.3669684128,0.7918553977,0.512170465,0.1186571471,-0.9492948051,0.9126574382,-0.9615636873,-0.5494543729,-0.9001011008,0.2054968438,0.5430555878,-0.6726409517,0.2514182619,-0.9481308,-0.2462635599,-0.8934189005,-0.9128859858,-0.1297429818,0.3885202199,0.5155750698,0.2039034668,0.1781177229,-0.4748404634,0.937614197,0.805995153,0.389603929,0.1466415674,-0.9556909564,-0.5488382936,-0.5066748232,0.7849864644,-0.4438382123,0.5014790953,0.5840296533,0.0987051255,0.849928025,0.6014928462,-0.1865933113,0.844326991,-0.866398224,-0.8885295222,-0.576208168,-0.6563576977,0.4046449962,-0.9248437931,-0.1136293635,0.8204566565,-0.32384905,-0.7231181335,-0.3955453445,-0.3762151762,-0.8125963748,-0.7836242455,-0.7142434044,0.0914481226,0.0952608087,-0.4609684297,0.4404481418,-0.4251800162,-0.4537570385,-0.6339663005,0.394646929,0.7998880951,-0.2539202368,-0.2399519112,0.820113324,0.3240200374,-0.5295851738,0.5844805618,-0.7126215394,0.9970035194,0.0569542286,-0.5166239851,0.9967777837,-0.4504484195,-0.097685944,0.0515666146,0.8335720385,-0.9073615866,0.6925309307,0.9042092298,0.8837831894,-0.7944382386,-0.6593478003,-0.8230981157,-0.0368629623,0.8224245592,-0.0261348561,-0.1247426716,0.9220084254,-0.3259398032,-0.734506082,-0.0375026098,-0.5690893536,-0.6436556154,-0.0576014769,-0.8753675679,-0.4877244235,-0.4568960712,-0.2771694798,0.3002513255,0.0431271872,0.1819871537,-0.9573181273,0.4175179282,0.0121311634,0.2173146779,-0.1646380049,0.9704413363,-0.5752980149,0.7993376935,0.3841844224,0.50511669,0.1023552443,-0.182289714,0.9816937534,0.8640200849,-0.4318008954,-0.7768863595,0.2293226009,-0.4257726813,0.0521621316,0.3532373894,-0.6200236121,0.3568864146,-0.1250782408,-0.1048052998,0.1815960701,-0.3973967652,-0.8749182976,0.8410628697,-0.1423673684,-0.4688936642,0.0492908303,-0.8983281091,-0.5765534169,0.3879918589,0.2499637581,0.4543922851,-0.9557686996,-0.9785356146,-0.7103442194,0.1265973208,0.7837813144,0.9393817085,-0.2437673847,-0.8812242723,-0.2417092156,-0.323494135,-0.6183295406,-0.0477590114,0.3535418838,0.5825209086,0.8860672615,0.5748014653,-0.1389816944,0.1756767748,-0.1736967504,0.8190256266,-0.1475258245,0.7623538166,-0.9792506086,-0.3662177818,0.2834829892,-0.6410046781,0.7544834716,-0.54369764,0.0074889721,0.1511956691,0.9859665198,-0.737009875,-0.4380031036,-0.7050516613,-0.6419337344,-0.3998955805,-0.8166647143,-0.3191227849,0.5807515488,-0.8716590943,0.3213980297,0.8068785088,-0.4058314135,0.0659187343,0.5214511635,-0.2426814066,0.891287183,-0.5663835637,0.9296152318,0.1362748754,-0.0105221463,-0.9859947187,0.8910713421,-0.5989742636,0.6579207563,-0.9226021195,0.4235999721,-0.0501604332,0.732196385,-0.8743334069,0.4849008809,-0.7024441347,-0.6560008712,0.2840002123,-0.1810262105,-0.7445029174,0.8189255805,-0.4893891529,0.1760866341,0.1890655426,0.4749032109,0.4360108108,-0.3680363454,-0.7311821452,0.1709704582,-0.2818408851,-0.0119850805,0.8638695512,0.9127778969,-0.8077573029,-0.455618827,0.5762832278,0.6473405868,0.3546748679,-0.7872495317,0.4947561191,0.0138305306,0.0325812307,0.8370808891,0.9289105019,0.8340727947,0.0398476604,-0.3938833493,-0.7730890097,0.9468959447,-0.9166728193,-0.6778375096,0.1996973984,0.9393538418,0.7185626438,-0.5483124983,-0.9867005574,0.3430361541,0.9960017011,-0.6958541152,0.6865383334,0.868638748,0.3836154129,-0.2677159129,-0.0557144468,-0.1412197259,-0.6638561022,-0.915297305,-0.6550984723,-0.6709621761,-0.6313332524,-0.5488744958,0.9717007671,0.3608282145,0.7499860655,0.4467655545,0.5749562835,-0.9280428764,0.3233766642,0.9834054223,-0.4992588588,0.8017990562,-0.1440002654,-0.5516264802,-0.2648491444,-0.8012237712,-0.9912031509,-0.8587211562,0.4870950135,0.4336575334,0.2826942308,0.9635483086,-0.429230172,-0.675478617,-0.6016639743,-0.968744737,-0.8507858335,0.4665658232,0.7894153318,-0.5205880098,-0.484578785,0.6813540423,-0.8347813147,-0.9119992778,-0.9398249159,0.9854811295,-0.3956350865,0.9143775453,-0.9807083899,0.359119072,-0.3731493753,0.4789286782,-0.5470842775,-0.6332950062,0.5360928432,0.5373728373,-0.2403495756,0.3256267928,-0.5710230358,-0.926657073,-0.1005709611,0.0115577563,-0.1908121467,0.6537091449,-0.2148344449,0.7893600163,-0.8774145156,0.3739931151,0.6341923168,-0.7754530377,0.4153283635,-0.3336933851,0.2273596065,0.6404911897,-0.0594027677,-0.5169334651,0.9085072969,-0.5489214809,0.9147395797,0.7941197724,-0.5242844821,0.750524648,0.9499527253,-0.4281934409,0.3679784002,-0.3170288163,0.1965453594,0.2851983172,0.179455461,0.7009596847,0.5224295489,-0.4405355287,-0.564321883,-0.4976559822,-0.5531208194,0.233365958,-0.4879322766,-0.3669438318,0.3808456766,-0.7897821392,-0.8243699546,0.0890333753,0.9859730802,0.2204731329,0.4264487969,0.8780569079,0.2474707767,-0.5985287118,-0.9457774462,0.1278927549,-0.4580636975,0.7828429544,0.6569355954,0.4416993827,0.9658658747,0.8148620571,0.4059042554,-0.5152686909,0.2956298294,0.2132091206,0.41223961,-0.121962369,-0.6560119738,-0.0321522911,-0.7360835145,0.1104734,-0.7069934266,-0.0676223973,-0.0968599,0.2269399868,0.1128078866,0.473756611,-0.9771770101,-0.5929849516,-0.1170177923,-0.583425194,-0.34036062,-0.4913062188,0.1082630352,0.6630888271,0.7285131094,0.0418418397,-0.6459513364,0.8692687855,0.5473858048,0.428588256,0.3147704263,-0.6203698859,0.969278005,-0.9953585934,-0.0984607561,0.3951173501,0.627887743,0.8938984143,-0.7417190112,-0.5814809723,0.8132438561,-0.353953178,-0.0404651504,0.3065114253,-0.8321663943,0.7398960981,0.2482930779,0.682917643,0.643206172,0.7151836562,-0.2214635939,-0.0729667558,0.6597906599,0.5475177992,0.9254149187,0.0469118665,-0.6408980303,0.9942872722,-0.1015819928,-0.7277613466,-0.2753451518,-0.6622723371,-0.7938659,-0.5207800647,0.2207266601,0.2158712438,-0.0372188857,0.4618443269,-0.0828239803,-0.0574544036,-0.6336672591,0.2375265099,0.4767745519,0.9503111682,0.1103743467,0.6386895309,0.7267173086,0.7223193563,0.1067830929,0.0152364847,-0.6408594394,-0.6468097253,-0.9090216,-0.537609529,-0.5882646634,0.9469453705,0.2508064896,0.7299048036,0.7227191487,0.3584063126,-0.0537387693,0.3737508858,0.2972848828,-0.1461045221,-0.4189369424,0.5455974622,-0.0273314022,0.4310619803,-0.0538409356,0.670383607,0.9646979099,-0.057972287,-0.7901657132,-0.7488563761,-0.4824822895,0.8755148724,-0.3723578315,-0.9998251389,-0.872420721,-0.9923463051,-0.7705671437,0.2938823551,0.675792042,-0.7566018465,-0.8885170296,-0.1185660033,0.7314502841,-0.5003173959,0.0918100718,-0.8828817583,-0.9330244185,-0.1924173499,0.8901960147,-0.1808621773,-0.0365729971,-0.8630101311,0.0600632823,-0.2410171167,0.9615780301,-0.3095779641,0.1427467536,-0.5364063881,-0.8418561032,0.5045455632,0.0442774253,0.528329241,-0.3508109049,0.2218693166,-0.7511544108,-0.9364691136,0.8793329486,-0.5719659169,0.4546101532,0.2915701394,0.2882493297,0.3817421974,0.2707034857,-0.4444936814,-0.3832718891,-0.7325874613,0.1353596088,0.8556323176,0.8294602752,-0.2341854382,0.3750979707,0.088937013,0.484600837,-0.5738353807,0.8006176015,0.0543288586,-0.7791871886,-0.2268737718,-0.9692588084,-0.7670980709,0.245871514,-0.1304916146,-0.1218410669,0.7826442692,0.6999744234,0.0584966207,-0.8921854346,0.0146446831,-0.0087710132,0.4484547473,-0.9258152035,0.1395674258,0.6442241917,-0.553314855,-0.1827583187,0.9143427225,-0.8929156508,0.7844970683,0.7881036964,-0.8598421348,0.954856885,0.1584763629,0.0147811947,0.8756946468,0.248693731,-0.5924731134,-0.9184897957,0.8411188848,0.1699559292,-0.6392807218,0.4706121945,-0.2289490859,0.9346110208,0.3729311673,0.6210067106,0.2391692854,-0.6488051486,-0.167992134,-0.0149042219,-0.5839114051,-0.7454488414,0.0493450739,0.0829879867,0.483965987,-0.4161991901,-0.3905945114,-0.5106933874,0.521001707,-0.578089292,-0.3120054477,-0.9496071147,-0.8589915015,-0.1065689863,0.9031367852,-0.0088768987,0.5459327928,-0.9283031596,-0.2116886536,0.3521774329,0.7755015619,-0.6949731386,0.0002086041,-0.0229249493,0.6149997473,-0.0870882165,-0.1531012731,-0.9086963732,0.6579210676,-0.2702803531,-0.9852846553,-0.54221708,-0.5962609765,0.5748557667,-0.1079886207,-0.5012861388,-0.028562053,0.8639288185,0.6842726367,0.1486213077,0.8395271029,0.7086039418,0.7794180066,-0.5472631246,0.1054806452,0.4362449198,0.6043138269,-0.7467719275,-0.1574985775,0.0196082098,0.1258442244,-0.4740225688,-0.2619463477,-0.0018547522,0.9874388206,0.4761446036,0.5404669158,-0.8031032306,0.1667342897,-0.9810820579,0.5216348991,-0.0055649061,0.4092352957,0.9101682396,-0.8082606268,-0.4541450915,0.8689424495,0.3230747051,0.0913828958,0.8699531144,-0.6693615308,-0.3672920482,-0.1345326029,0.7231437835,0.335044504,-0.5058704379,0.5828918827,0.970411149,0.5815391128,0.5061153858,-0.2646715967,-0.1079466384,-0.1269225679,0.5820777038,-0.3778019732,-0.1026345137,-0.8534116824,0.7395704204,-0.4786003785,-0.0601091594,-0.9505632914,-0.4144230933,-0.9486652325,-0.5071959978,-0.6978941373,-0.5731067788,0.2782171308,-0.022925519,0.6402510542,0.7869832225,0.3998037086,-0.3071618209,-0.7611323687,0.2816697759,0.9138826393,-0.7001728377,-0.4176607941,0.3936111033,-0.0748765363,0.9484969974,-0.3868701344,-0.4173726128,-0.9124999519,0.647288082,0.9904038405,0.2318996396,-0.9692426189,0.8682657245,0.1828657686,0.2569507384,0.5028322427,0.08132371,-0.7178195777,-0.2158523561,-0.6706674417,-0.9216428194,-0.9866914736,0.4300649133,0.8470839031,0.1636712545,0.0148764988,0.2667328876,-0.3610832264,-0.9518139181,-0.7970794798,0.2223646468,0.6391258165,0.7884559531,0.3101418787,0.983397533,0.9454835672,0.7689012944,0.5935568389,-0.7301531582,0.8436273309,-0.6525114186,-0.6379282651,-0.4866514653,-0.3535511652,0.375612214,0.8747366318,-0.7191366346,0.0678432573,0.7896363099,0.3234859892,0.1168480017,-0.1494734257,0.4639016805,0.0464348559,-0.0148407779,-0.8480853214,0.4598824093,-0.6499798347,-0.6283964734,-0.4167757752,0.8721533507,0.7201818089,-0.6111397227,-0.6535101123,0.4653642294,0.6038226063,0.7417229466,-0.8086869011,-0.0847386572,0.9422948256,-0.2427607179,-0.8405576334,-0.758384873,-0.1179527767,0.4220954183,0.5115180344,-0.0644874154,0.9523271885,0.8157504132,-0.6583906656,0.441785119,-0.8235962667,-0.0734097647,0.865009727,-0.2351863376,-0.112976457,-0.0944491506,0.0755563686,0.9725417728,-0.8781694205,0.6748675237,0.1849202003,-0.5101925695,0.6521142931,-0.6948663004,0.6878776285,-0.7548214881,-0.6753389524,0.4376177855,-0.0614557928,-0.3026688397,-0.6485879525,0.2745974334,-0.3017138627,-0.9499703599,-0.9952496804,-0.1093049611,0.4975051338,0.7630176567,-0.427301856,0.1334384031,-0.1832976134,-0.078832073,-0.0905424731,-0.0104880082,0.7449492212,0.6044528053,-0.3416870766,-0.8433758263,0.8791496707,-0.7913305083,-0.831816877,0.6814005293,0.6398989506,0.3079275706,-0.8477014416,-0.82951856,0.4678902754,-0.1574506443,-0.7642657804,0.2691535115,0.1926004178,0.3982983464,-0.9366553619,0.2420781055,-0.2512941817,0.7580303948,-0.3254669938,0.8193619862,-0.0182628726,0.3617601662,0.4405423625,0.0007619925,0.9110110324,0.3323829212,-0.2471113739,-0.5385808154,0.9703646975,-0.4588510786,-0.4694065777,0.4019419887,-0.9788971257,0.1351425824,0.5734149271,0.4561669806,-0.5226287432,-0.5854123279,0.7927235419,0.377479391,-0.7319231325,-0.4854801928,0.8709130812,-0.8355159825,0.5052685349,-0.930437389,-0.7076803777,0.3950956961,0.6895739812,0.9981095207,0.4471948947,-0.0455658526,0.326865202,-0.8925010974,0.3408843517,0.622006767,-0.0717158755,0.0232026873,0.2650948923,-0.1486218192,0.4845955938,0.5087867849,-0.6597892333,0.0513978607,-0.7598306249,0.3605594544,0.0065728199,0.8155636247,-0.8582739911,-0.3544612191,0.1139738708,0.4395049299,0.4484470764,-0.345639982,0.539652616,-0.1199853841,0.7955833106,0.9612183515,-0.7129110766,0.1393413158,0.7770508336,-0.2068466481,0.2401068431,-0.7101339142,-0.6639399239,-0.2285235166,-0.1698642683,-0.875118443,0.657557508,-0.6355536023,-0.1896377795,-0.7980202601,0.2000626045,-0.6698915575,-0.8770012679,0.4662101262,-0.2170655261,-0.0327041116,0.9582974057,0.4784406835,-0.2207530392,0.5332319506,-0.5861076916,-0.0161033091,0.1829144715,0.8826867874,0.169401302,-0.6065171348,0.4619346948,0.2650667208,-0.2613138418,0.6407033798,-0.8097138831,0.0059820062,-0.73587995,-0.0589595408,-0.413326876,0.8071053116,-0.8928932811,0.5916814524,-0.6480885866,-0.1077704345,-0.7287180358,0.3328677687,0.472387093,-0.1898814411,0.2265380033,0.7560246739,0.8559493985,0.6487304471,0.512390389,-0.6959706354,-0.0382366554,-0.1825888927,0.6386494365,-0.8226535353,0.7116696947,-0.2715611258,-0.2335178843,-0.5193829311,0.2186168862,0.2867347406,-0.821464152,0.6058998839,0.8247715435,0.5873456189,0.5399602841,-0.5708227538,-0.0955045148,-0.1880890786,0.9709385141,-0.2397281172,0.4394424183,0.2796595582,0.7078481676,0.0051945116,-0.3219018478,-0.7534452147,0.0950516986,0.2489809758,0.8964505397,-0.3099247348,0.7703933728,0.2816371639,0.2793633067,0.5863848254,-0.2013964219,-0.9778333456,0.1455649103,0.621492156,0.6822199634,0.3995445531,-0.8168310813,-0.1384971697,0.3086740136,0.3220086957,0.9070215362,0.6383636268,0.7894860002,-0.102002374,0.3817241879,0.1615976258,0.9599256153,0.1082113567,-0.82181954,0.2481523538,-0.275581636,0.8031688454,0.7854723129,-0.1610643756,0.4520886643,0.3880686289,0.7569308297,-0.3424707009,0.291729357,0.5018487561,0.7403798756,-0.5475044551,-0.5505257889,-0.5494135164,0.6033235689,0.4790800155,0.0869212945,-0.076755289,0.9142156556,0.8062369746,0.2239127182,0.5690648409,-0.3143727318,0.3124436288,-0.9411607296,-0.2627632946,-0.3768165942,0.8665847949,0.2735800539,-0.6301915544,0.5540078419,-0.5295427273,-0.2056923021,-0.7060647037,0.8060885012,0.6381575981,0.9805801377,-0.9649399798,-0.631011906,-0.8855863805,0.3489013148,-0.1141075614,0.4851001381,-0.9662976257,-0.6556240871,0.6467935686,-0.7474122963,-0.5310558888,-0.2908148113,0.1515443264,0.0494681929,-0.9959643124,0.21342982,-0.7659887174,0.3079977348,0.5804080671,-0.1484087619,-0.7857494302,0.8498141121,-0.0517935974,0.1301002207,0.3037662514,0.5607166684,-0.6265465698,0.0840409354,-0.3665490896,0.9291072745,-0.6788228195,0.1683700799,0.5419039533,0.3186331686,-0.888332434,0.6278068829,0.9333373286,0.686081545,-0.3165737003,0.359090326,0.4928192287,-0.9400279454,-0.6584183218,0.1192015232,-0.5470773809,0.2499417454,-0.6659746411,0.2384821174,0.5019547753,-0.7226277191,0.6068589555,0.1974317455,0.4212483147,-0.205242758,-0.1297150523,-0.562165254,0.3678141672,0.2723958993,0.0631047671,-0.0294124906,-0.1340553711,-0.0302151346,-0.0160429343,-0.9376595454,0.9032607163,-0.3650455145,-0.4124540143,0.8311718389,0.1547474806,-0.4214671857,0.1892358167,0.0354981842,-0.8540838635,-0.6377876808,0.3344389312,-0.4936279399,0.7931942266,-0.9036790004,0.0475599092,-0.4736921834,-0.0547796798,-0.6227402042,0.9323204697,-0.1088780124,-0.0850403769,0.5378459344,0.6739327735,0.8054324644,0.7648385896,0.908399744,-0.8020259569,0.3921848895,0.6183480471,-0.2980818332,-0.6512159934,0.1978993662,0.3360259976,0.3327209785,0.7949563743,-0.4349005189,-0.1021420888,-0.5579354887,0.7332919951,-0.9562636512,-0.5415409045,0.4132908999,-0.997736753,-0.4092883506,-0.9376961237,-0.6013443686,-0.1841985687,0.1357062614,0.2953405342,-0.1281649894,-0.0339920094,-0.9945843876,-0.6766894006,0.847555624,0.3318144454,0.9914698001,-0.2182741795,0.054446028,-0.2804598898,-0.5465249983,-0.3966130263,0.0275503245,0.0315051977,0.9930598104,-0.6024699421,-0.038455572,0.433390887,0.488622011,-0.6009347065,-0.8001044118,-0.8697564107,-0.9292027596,-0.6185263405,0.7159792568,0.259819437,-0.2464456038,-0.0420758303,-0.9083220596,0.351807168,-0.5202659864,-0.7386428251,0.5694344324,0.6300006683,-0.8871892812,-0.4268172386,-0.9229526542,0.7350881655,0.6702424228,0.4893776151,0.5420945581,0.1455406563,-0.3944102906,-0.7442895392,-0.460504137,0.8058836042,-0.4034391491,-0.229590513,0.6080927935,-0.7033576115,0.8215938687,-0.8698958112,-0.4231146935,-0.2052330097,-0.2263231057,0.1422163633,-0.2920738483,0.5464802553,0.4471590233,-0.7752332076,0.7923937242,0.0601335807,0.9926134822,0.0199187626,0.6671531632,-0.9585763363,0.4608393271,0.3631594595,-0.4705581536,-0.0324365698,-0.9329727511,-0.8829709924,-0.4205942788,-0.1981849544,0.2305129594,-0.6758584358,0.6229253862,0.7379233981,-0.7182022667,0.7304938564,-0.0558078694,-0.2427220089,-0.4958552318,-0.9044248115,0.2265648495,0.6605971853,-0.6693014828,0.9494076264,0.810188708,-0.3119151293,-0.3360726055,-0.3455911404,-0.5762418703,0.0772558201,-0.2206303888,-0.7983125677,0.3501971057,-0.0646126387,0.2771509556,0.2535432662,-0.2292720117,-0.1764781887,0.1002988492,-0.1091795564,-0.6174358418,-0.8722636916,0.4843755767,-0.9377213075,0.2940381194,0.1371810282,-0.7355352518,-0.5339932151,-0.444955683,0.0178948426,-0.884226774,-0.6816526347,-0.3966804236,-0.006827717,0.4715318121,0.2370224474,-0.0948950705,0.2025031976,0.6654898857,-0.789747026,-0.0194221981,-0.3744462416,-0.4942310233,0.3845458798,0.6980357313,-0.3353564008,0.8580810943,-0.0460525801,-0.9569412783,-0.8075739849,0.6091461424,0.318716411,0.0009657074,0.8231655395,0.4514750258,0.1398974714,0.3193504007,-0.5068663733,0.7190973778,-0.8869292733,0.5499224508,0.536639702,0.7515089779,-0.9025341146,-0.8805962799,0.2384499418,-0.5170826306,0.471469009,-0.0055542278,-0.2943682956,0.6325484864,-0.6878623975,-0.6335955436,0.3381933217,-0.5464196258,-0.131053577,-0.0232540495,-0.9188625223,0.9324617643,-0.6714002035,0.9845531672,-0.9337102868,0.6098402692,-0.7643430167,0.9333015231,-0.9997620233,-0.7185184768,0.1036369993,-0.9936004879
